digraph Tree {
node [shape=box, style="filled, rounded", color="black", fontname=helvetica] ;
edge [fontname=helvetica] ;
0 [label="X[2] <= 0.4\ngini = 0.3\nsamples = 8000\nvalue = [6356, 1644]", fillcolor="#eca26c"] ;
1 [label="X[5] <= 0.5\ngini = 0.2\nsamples = 6130\nvalue = [5324, 806]", fillcolor="#e99457"] ;
0 -> 1 [labeldistance=2.5, labelangle=45, headlabel="True"] ;
2 [label="X[5] <= 0.2\ngini = 0.2\nsamples = 5987\nvalue = [5296, 691]", fillcolor="#e89153"] ;
1 -> 2 ;
3 [label="X[2] <= 0.3\ngini = 0.3\nsamples = 2952\nvalue = [2410, 542]", fillcolor="#eb9d66"] ;
2 -> 3 ;
4 [label="X[11] <= 0.0\ngini = 0.2\nsamples = 2127\nvalue = [1837, 290]", fillcolor="#e99558"] ;
3 -> 4 ;
5 [label="X[4] <= 0.3\ngini = 0.2\nsamples = 1617\nvalue = [1440, 177]", fillcolor="#e89051"] ;
4 -> 5 ;
6 [label="X[2] <= 0.2\ngini = 0.3\nsamples = 422\nvalue = [332, 90]", fillcolor="#eca36f"] ;
5 -> 6 ;
7 [label="X[13] <= 0.6\ngini = 0.2\nsamples = 124\nvalue = [108, 16]", fillcolor="#e99456"] ;
6 -> 7 ;
8 [label="X[8] <= 1.0\ngini = 0.2\nsamples = 107\nvalue = [97, 10]", fillcolor="#e88e4d"] ;
7 -> 8 ;
9 [label="X[4] <= 0.3\ngini = 0.1\nsamples = 104\nvalue = [96, 8]", fillcolor="#e78c49"] ;
8 -> 9 ;
10 [label="X[12] <= 0.6\ngini = 0.1\nsamples = 103\nvalue = [96, 7]", fillcolor="#e78a47"] ;
9 -> 10 ;
11 [label="X[0] <= 0.5\ngini = 0.1\nsamples = 90\nvalue = [86, 4]", fillcolor="#e68742"] ;
10 -> 11 ;
12 [label="X[8] <= 0.5\ngini = 0.2\nsamples = 28\nvalue = [25, 3]", fillcolor="#e89051"] ;
11 -> 12 ;
13 [label="X[8] <= 0.3\ngini = 0.3\nsamples = 14\nvalue = [11, 3]", fillcolor="#eca36f"] ;
12 -> 13 ;
14 [label="gini = 0.0\nsamples = 8\nvalue = [8, 0]", fillcolor="#e58139"] ;
13 -> 14 ;
15 [label="X[12] <= 0.4\ngini = 0.5\nsamples = 6\nvalue = [3, 3]", fillcolor="#ffffff"] ;
13 -> 15 ;
16 [label="X[4] <= 0.1\ngini = 0.4\nsamples = 4\nvalue = [3, 1]", fillcolor="#eeab7b"] ;
15 -> 16 ;
17 [label="gini = 0.0\nsamples = 3\nvalue = [3, 0]", fillcolor="#e58139"] ;
16 -> 17 ;
18 [label="gini = 0.0\nsamples = 1\nvalue = [0, 1]", fillcolor="#399de5"] ;
16 -> 18 ;
19 [label="gini = 0.0\nsamples = 2\nvalue = [0, 2]", fillcolor="#399de5"] ;
15 -> 19 ;
20 [label="gini = 0.0\nsamples = 14\nvalue = [14, 0]", fillcolor="#e58139"] ;
12 -> 20 ;
21 [label="X[12] <= 0.4\ngini = 0.0\nsamples = 62\nvalue = [61, 1]", fillcolor="#e5833c"] ;
11 -> 21 ;
22 [label="X[12] <= 0.4\ngini = 0.2\nsamples = 9\nvalue = [8, 1]", fillcolor="#e89152"] ;
21 -> 22 ;
23 [label="gini = 0.0\nsamples = 8\nvalue = [8, 0]", fillcolor="#e58139"] ;
22 -> 23 ;
24 [label="gini = 0.0\nsamples = 1\nvalue = [0, 1]", fillcolor="#399de5"] ;
22 -> 24 ;
25 [label="gini = 0.0\nsamples = 53\nvalue = [53, 0]", fillcolor="#e58139"] ;
21 -> 25 ;
26 [label="X[12] <= 0.6\ngini = 0.4\nsamples = 13\nvalue = [10, 3]", fillcolor="#eda774"] ;
10 -> 26 ;
27 [label="gini = 0.0\nsamples = 2\nvalue = [0, 2]", fillcolor="#399de5"] ;
26 -> 27 ;
28 [label="X[8] <= 0.8\ngini = 0.2\nsamples = 11\nvalue = [10, 1]", fillcolor="#e88e4d"] ;
26 -> 28 ;
29 [label="gini = 0.0\nsamples = 8\nvalue = [8, 0]", fillcolor="#e58139"] ;
28 -> 29 ;
30 [label="X[6] <= 0.0\ngini = 0.4\nsamples = 3\nvalue = [2, 1]", fillcolor="#f2c09c"] ;
28 -> 30 ;
31 [label="gini = 0.0\nsamples = 1\nvalue = [0, 1]", fillcolor="#399de5"] ;
30 -> 31 ;
32 [label="gini = 0.0\nsamples = 2\nvalue = [2, 0]", fillcolor="#e58139"] ;
30 -> 32 ;
33 [label="gini = 0.0\nsamples = 1\nvalue = [0, 1]", fillcolor="#399de5"] ;
9 -> 33 ;
34 [label="X[3] <= 0.3\ngini = 0.4\nsamples = 3\nvalue = [1, 2]", fillcolor="#9ccef2"] ;
8 -> 34 ;
35 [label="gini = 0.0\nsamples = 1\nvalue = [1, 0]", fillcolor="#e58139"] ;
34 -> 35 ;
36 [label="gini = 0.0\nsamples = 2\nvalue = [0, 2]", fillcolor="#399de5"] ;
34 -> 36 ;
37 [label="X[12] <= 0.4\ngini = 0.5\nsamples = 17\nvalue = [11, 6]", fillcolor="#f3c6a5"] ;
7 -> 37 ;
38 [label="gini = 0.0\nsamples = 2\nvalue = [0, 2]", fillcolor="#399de5"] ;
37 -> 38 ;
39 [label="X[8] <= 0.3\ngini = 0.4\nsamples = 15\nvalue = [11, 4]", fillcolor="#eeaf81"] ;
37 -> 39 ;
40 [label="X[2] <= 0.1\ngini = 0.5\nsamples = 5\nvalue = [2, 3]", fillcolor="#bddef6"] ;
39 -> 40 ;
41 [label="gini = 0.0\nsamples = 3\nvalue = [0, 3]", fillcolor="#399de5"] ;
40 -> 41 ;
42 [label="gini = 0.0\nsamples = 2\nvalue = [2, 0]", fillcolor="#e58139"] ;
40 -> 42 ;
43 [label="X[8] <= 0.8\ngini = 0.2\nsamples = 10\nvalue = [9, 1]", fillcolor="#e88f4f"] ;
39 -> 43 ;
44 [label="gini = 0.0\nsamples = 8\nvalue = [8, 0]", fillcolor="#e58139"] ;
43 -> 44 ;
45 [label="X[4] <= 0.1\ngini = 0.5\nsamples = 2\nvalue = [1, 1]", fillcolor="#ffffff"] ;
43 -> 45 ;
46 [label="gini = 0.0\nsamples = 1\nvalue = [1, 0]", fillcolor="#e58139"] ;
45 -> 46 ;
47 [label="gini = 0.0\nsamples = 1\nvalue = [0, 1]", fillcolor="#399de5"] ;
45 -> 47 ;
48 [label="X[12] <= 0.2\ngini = 0.4\nsamples = 298\nvalue = [224, 74]", fillcolor="#eeab7a"] ;
6 -> 48 ;
49 [label="gini = 0.0\nsamples = 2\nvalue = [0, 2]", fillcolor="#399de5"] ;
48 -> 49 ;
50 [label="X[14] <= 0.0\ngini = 0.4\nsamples = 296\nvalue = [224, 72]", fillcolor="#edaa79"] ;
48 -> 50 ;
51 [label="X[4] <= 0.3\ngini = 0.4\nsamples = 290\nvalue = [222, 68]", fillcolor="#eda876"] ;
50 -> 51 ;
52 [label="X[7] <= 0.0\ngini = 0.4\nsamples = 279\nvalue = [211, 68]", fillcolor="#edaa79"] ;
51 -> 52 ;
53 [label="X[12] <= 0.4\ngini = 0.4\nsamples = 137\nvalue = [97, 40]", fillcolor="#f0b58b"] ;
52 -> 53 ;
54 [label="X[8] <= 0.7\ngini = 0.4\nsamples = 128\nvalue = [94, 34]", fillcolor="#eeaf81"] ;
53 -> 54 ;
55 [label="X[8] <= 0.7\ngini = 0.4\nsamples = 98\nvalue = [68, 30]", fillcolor="#f0b990"] ;
54 -> 55 ;
56 [label="X[2] <= 0.2\ngini = 0.4\nsamples = 88\nvalue = [65, 23]", fillcolor="#eeae7f"] ;
55 -> 56 ;
57 [label="X[14] <= 0.0\ngini = 0.1\nsamples = 16\nvalue = [15, 1]", fillcolor="#e78946"] ;
56 -> 57 ;
58 [label="gini = 0.0\nsamples = 15\nvalue = [15, 0]", fillcolor="#e58139"] ;
57 -> 58 ;
59 [label="gini = 0.0\nsamples = 1\nvalue = [0, 1]", fillcolor="#399de5"] ;
57 -> 59 ;
60 [label="X[9] <= 0.0\ngini = 0.4\nsamples = 72\nvalue = [50, 22]", fillcolor="#f0b890"] ;
56 -> 60 ;
61 [label="X[13] <= 0.4\ngini = 0.5\nsamples = 30\nvalue = [17, 13]", fillcolor="#f9e1d0"] ;
60 -> 61 ;
62 [label="X[8] <= 0.6\ngini = 0.5\nsamples = 24\nvalue = [11, 13]", fillcolor="#e1f0fb"] ;
61 -> 62 ;
63 [label="X[12] <= 0.3\ngini = 0.4\nsamples = 19\nvalue = [6, 13]", fillcolor="#94caf1"] ;
62 -> 63 ;
64 [label="gini = 0.0\nsamples = 7\nvalue = [0, 7]", fillcolor="#399de5"] ;
63 -> 64 ;
65 [label="X[2] <= 0.2\ngini = 0.5\nsamples = 12\nvalue = [6, 6]", fillcolor="#ffffff"] ;
63 -> 65 ;
66 [label="X[1] <= 0.5\ngini = 0.4\nsamples = 8\nvalue = [2, 6]", fillcolor="#7bbeee"] ;
65 -> 66 ;
67 [label="gini = 0.0\nsamples = 5\nvalue = [0, 5]", fillcolor="#399de5"] ;
66 -> 67 ;
68 [label="X[4] <= 0.1\ngini = 0.4\nsamples = 3\nvalue = [2, 1]", fillcolor="#f2c09c"] ;
66 -> 68 ;
69 [label="gini = 0.0\nsamples = 2\nvalue = [2, 0]", fillcolor="#e58139"] ;
68 -> 69 ;
70 [label="gini = 0.0\nsamples = 1\nvalue = [0, 1]", fillcolor="#399de5"] ;
68 -> 70 ;
71 [label="gini = 0.0\nsamples = 4\nvalue = [4, 0]", fillcolor="#e58139"] ;
65 -> 71 ;
72 [label="gini = 0.0\nsamples = 5\nvalue = [5, 0]", fillcolor="#e58139"] ;
62 -> 72 ;
73 [label="gini = 0.0\nsamples = 6\nvalue = [6, 0]", fillcolor="#e58139"] ;
61 -> 73 ;
74 [label="X[13] <= 0.4\ngini = 0.3\nsamples = 42\nvalue = [33, 9]", fillcolor="#eca36f"] ;
60 -> 74 ;
75 [label="X[0] <= 2.5\ngini = 0.2\nsamples = 29\nvalue = [25, 4]", fillcolor="#e99559"] ;
74 -> 75 ;
76 [label="X[8] <= 0.4\ngini = 0.2\nsamples = 24\nvalue = [22, 2]", fillcolor="#e78c4b"] ;
75 -> 76 ;
77 [label="gini = 0.0\nsamples = 15\nvalue = [15, 0]", fillcolor="#e58139"] ;
76 -> 77 ;
78 [label="X[8] <= 0.5\ngini = 0.3\nsamples = 9\nvalue = [7, 2]", fillcolor="#eca572"] ;
76 -> 78 ;
79 [label="gini = 0.0\nsamples = 2\nvalue = [0, 2]", fillcolor="#399de5"] ;
78 -> 79 ;
80 [label="gini = 0.0\nsamples = 7\nvalue = [7, 0]", fillcolor="#e58139"] ;
78 -> 80 ;
81 [label="X[2] <= 0.2\ngini = 0.5\nsamples = 5\nvalue = [3, 2]", fillcolor="#f6d5bd"] ;
75 -> 81 ;
82 [label="gini = 0.0\nsamples = 2\nvalue = [2, 0]", fillcolor="#e58139"] ;
81 -> 82 ;
83 [label="X[13] <= 0.1\ngini = 0.4\nsamples = 3\nvalue = [1, 2]", fillcolor="#9ccef2"] ;
81 -> 83 ;
84 [label="gini = 0.0\nsamples = 1\nvalue = [1, 0]", fillcolor="#e58139"] ;
83 -> 84 ;
85 [label="gini = 0.0\nsamples = 2\nvalue = [0, 2]", fillcolor="#399de5"] ;
83 -> 85 ;
86 [label="X[13] <= 0.4\ngini = 0.5\nsamples = 13\nvalue = [8, 5]", fillcolor="#f5d0b5"] ;
74 -> 86 ;
87 [label="gini = 0.0\nsamples = 2\nvalue = [0, 2]", fillcolor="#399de5"] ;
86 -> 87 ;
88 [label="X[8] <= 0.6\ngini = 0.4\nsamples = 11\nvalue = [8, 3]", fillcolor="#efb083"] ;
86 -> 88 ;
89 [label="X[12] <= 0.3\ngini = 0.2\nsamples = 8\nvalue = [7, 1]", fillcolor="#e99355"] ;
88 -> 89 ;
90 [label="gini = 0.0\nsamples = 1\nvalue = [0, 1]", fillcolor="#399de5"] ;
89 -> 90 ;
91 [label="gini = 0.0\nsamples = 7\nvalue = [7, 0]", fillcolor="#e58139"] ;
89 -> 91 ;
92 [label="X[1] <= 0.5\ngini = 0.4\nsamples = 3\nvalue = [1, 2]", fillcolor="#9ccef2"] ;
88 -> 92 ;
93 [label="gini = 0.0\nsamples = 1\nvalue = [1, 0]", fillcolor="#e58139"] ;
92 -> 93 ;
94 [label="gini = 0.0\nsamples = 2\nvalue = [0, 2]", fillcolor="#399de5"] ;
92 -> 94 ;
95 [label="X[13] <= 0.2\ngini = 0.4\nsamples = 10\nvalue = [3, 7]", fillcolor="#8ec7f0"] ;
55 -> 95 ;
96 [label="X[9] <= 0.0\ngini = 0.5\nsamples = 5\nvalue = [3, 2]", fillcolor="#f6d5bd"] ;
95 -> 96 ;
97 [label="gini = 0.0\nsamples = 2\nvalue = [2, 0]", fillcolor="#e58139"] ;
96 -> 97 ;
98 [label="X[6] <= 0.0\ngini = 0.4\nsamples = 3\nvalue = [1, 2]", fillcolor="#9ccef2"] ;
96 -> 98 ;
99 [label="gini = 0.0\nsamples = 1\nvalue = [1, 0]", fillcolor="#e58139"] ;
98 -> 99 ;
100 [label="gini = 0.0\nsamples = 2\nvalue = [0, 2]", fillcolor="#399de5"] ;
98 -> 100 ;
101 [label="gini = 0.0\nsamples = 5\nvalue = [0, 5]", fillcolor="#399de5"] ;
95 -> 101 ;
102 [label="X[8] <= 0.9\ngini = 0.2\nsamples = 30\nvalue = [26, 4]", fillcolor="#e99457"] ;
54 -> 102 ;
103 [label="gini = 0.0\nsamples = 16\nvalue = [16, 0]", fillcolor="#e58139"] ;
102 -> 103 ;
104 [label="X[13] <= 0.4\ngini = 0.4\nsamples = 14\nvalue = [10, 4]", fillcolor="#efb388"] ;
102 -> 104 ;
105 [label="X[8] <= 0.9\ngini = 0.3\nsamples = 11\nvalue = [9, 2]", fillcolor="#eb9d65"] ;
104 -> 105 ;
106 [label="X[0] <= 1.5\ngini = 0.4\nsamples = 6\nvalue = [4, 2]", fillcolor="#f2c09c"] ;
105 -> 106 ;
107 [label="gini = 0.0\nsamples = 3\nvalue = [3, 0]", fillcolor="#e58139"] ;
106 -> 107 ;
108 [label="X[2] <= 0.3\ngini = 0.4\nsamples = 3\nvalue = [1, 2]", fillcolor="#9ccef2"] ;
106 -> 108 ;
109 [label="gini = 0.0\nsamples = 2\nvalue = [0, 2]", fillcolor="#399de5"] ;
108 -> 109 ;
110 [label="gini = 0.0\nsamples = 1\nvalue = [1, 0]", fillcolor="#e58139"] ;
108 -> 110 ;
111 [label="gini = 0.0\nsamples = 5\nvalue = [5, 0]", fillcolor="#e58139"] ;
105 -> 111 ;
112 [label="X[8] <= 1.0\ngini = 0.4\nsamples = 3\nvalue = [1, 2]", fillcolor="#9ccef2"] ;
104 -> 112 ;
113 [label="gini = 0.0\nsamples = 2\nvalue = [0, 2]", fillcolor="#399de5"] ;
112 -> 113 ;
114 [label="gini = 0.0\nsamples = 1\nvalue = [1, 0]", fillcolor="#e58139"] ;
112 -> 114 ;
115 [label="X[6] <= 0.0\ngini = 0.4\nsamples = 9\nvalue = [3, 6]", fillcolor="#9ccef2"] ;
53 -> 115 ;
116 [label="gini = 0.0\nsamples = 2\nvalue = [2, 0]", fillcolor="#e58139"] ;
115 -> 116 ;
117 [label="X[14] <= 0.0\ngini = 0.2\nsamples = 7\nvalue = [1, 6]", fillcolor="#5aade9"] ;
115 -> 117 ;
118 [label="gini = 0.0\nsamples = 6\nvalue = [0, 6]", fillcolor="#399de5"] ;
117 -> 118 ;
119 [label="gini = 0.0\nsamples = 1\nvalue = [1, 0]", fillcolor="#e58139"] ;
117 -> 119 ;
120 [label="X[13] <= 0.4\ngini = 0.3\nsamples = 142\nvalue = [114, 28]", fillcolor="#eba06a"] ;
52 -> 120 ;
121 [label="X[2] <= 0.2\ngini = 0.4\nsamples = 101\nvalue = [76, 25]", fillcolor="#eeaa7a"] ;
120 -> 121 ;
122 [label="X[12] <= 0.3\ngini = 0.4\nsamples = 4\nvalue = [1, 3]", fillcolor="#7bbeee"] ;
121 -> 122 ;
123 [label="gini = 0.0\nsamples = 1\nvalue = [1, 0]", fillcolor="#e58139"] ;
122 -> 123 ;
124 [label="gini = 0.0\nsamples = 3\nvalue = [0, 3]", fillcolor="#399de5"] ;
122 -> 124 ;
125 [label="X[13] <= 0.3\ngini = 0.4\nsamples = 97\nvalue = [75, 22]", fillcolor="#eda673"] ;
121 -> 125 ;
126 [label="X[2] <= 0.2\ngini = 0.3\nsamples = 85\nvalue = [69, 16]", fillcolor="#eb9e67"] ;
125 -> 126 ;
127 [label="X[13] <= 0.2\ngini = 0.2\nsamples = 46\nvalue = [41, 5]", fillcolor="#e89051"] ;
126 -> 127 ;
128 [label="X[12] <= 0.5\ngini = 0.3\nsamples = 27\nvalue = [22, 5]", fillcolor="#eb9e66"] ;
127 -> 128 ;
129 [label="X[6] <= 0.0\ngini = 0.3\nsamples = 26\nvalue = [22, 4]", fillcolor="#ea985d"] ;
128 -> 129 ;
130 [label="X[12] <= 0.4\ngini = 0.5\nsamples = 5\nvalue = [3, 2]", fillcolor="#f6d5bd"] ;
129 -> 130 ;
131 [label="gini = 0.0\nsamples = 2\nvalue = [2, 0]", fillcolor="#e58139"] ;
130 -> 131 ;
132 [label="X[0] <= 2.5\ngini = 0.4\nsamples = 3\nvalue = [1, 2]", fillcolor="#9ccef2"] ;
130 -> 132 ;
133 [label="gini = 0.0\nsamples = 2\nvalue = [0, 2]", fillcolor="#399de5"] ;
132 -> 133 ;
134 [label="gini = 0.0\nsamples = 1\nvalue = [1, 0]", fillcolor="#e58139"] ;
132 -> 134 ;
135 [label="X[10] <= 0.0\ngini = 0.2\nsamples = 21\nvalue = [19, 2]", fillcolor="#e88e4e"] ;
129 -> 135 ;
136 [label="gini = 0.0\nsamples = 13\nvalue = [13, 0]", fillcolor="#e58139"] ;
135 -> 136 ;
137 [label="X[3] <= 0.3\ngini = 0.4\nsamples = 8\nvalue = [6, 2]", fillcolor="#eeab7b"] ;
135 -> 137 ;
138 [label="X[12] <= 0.4\ngini = 0.5\nsamples = 4\nvalue = [2, 2]", fillcolor="#ffffff"] ;
137 -> 138 ;
139 [label="gini = 0.0\nsamples = 2\nvalue = [0, 2]", fillcolor="#399de5"] ;
138 -> 139 ;
140 [label="gini = 0.0\nsamples = 2\nvalue = [2, 0]", fillcolor="#e58139"] ;
138 -> 140 ;
141 [label="gini = 0.0\nsamples = 4\nvalue = [4, 0]", fillcolor="#e58139"] ;
137 -> 141 ;
142 [label="gini = 0.0\nsamples = 1\nvalue = [0, 1]", fillcolor="#399de5"] ;
128 -> 142 ;
143 [label="gini = 0.0\nsamples = 19\nvalue = [19, 0]", fillcolor="#e58139"] ;
127 -> 143 ;
144 [label="X[12] <= 0.3\ngini = 0.4\nsamples = 39\nvalue = [28, 11]", fillcolor="#efb287"] ;
126 -> 144 ;
145 [label="X[9] <= 0.0\ngini = 0.5\nsamples = 27\nvalue = [17, 10]", fillcolor="#f4cbad"] ;
144 -> 145 ;
146 [label="X[8] <= 0.8\ngini = 0.4\nsamples = 7\nvalue = [2, 5]", fillcolor="#88c4ef"] ;
145 -> 146 ;
147 [label="X[3] <= 0.1\ngini = 0.3\nsamples = 6\nvalue = [1, 5]", fillcolor="#61b1ea"] ;
146 -> 147 ;
148 [label="X[0] <= 0.5\ngini = 0.5\nsamples = 2\nvalue = [1, 1]", fillcolor="#ffffff"] ;
147 -> 148 ;
149 [label="gini = 0.0\nsamples = 1\nvalue = [1, 0]", fillcolor="#e58139"] ;
148 -> 149 ;
150 [label="gini = 0.0\nsamples = 1\nvalue = [0, 1]", fillcolor="#399de5"] ;
148 -> 150 ;
151 [label="gini = 0.0\nsamples = 4\nvalue = [0, 4]", fillcolor="#399de5"] ;
147 -> 151 ;
152 [label="gini = 0.0\nsamples = 1\nvalue = [1, 0]", fillcolor="#e58139"] ;
146 -> 152 ;
153 [label="X[12] <= 0.3\ngini = 0.4\nsamples = 20\nvalue = [15, 5]", fillcolor="#eeab7b"] ;
145 -> 153 ;
154 [label="X[8] <= 0.3\ngini = 0.2\nsamples = 15\nvalue = [13, 2]", fillcolor="#e99457"] ;
153 -> 154 ;
155 [label="X[8] <= 0.2\ngini = 0.5\nsamples = 4\nvalue = [2, 2]", fillcolor="#ffffff"] ;
154 -> 155 ;
156 [label="gini = 0.0\nsamples = 2\nvalue = [2, 0]", fillcolor="#e58139"] ;
155 -> 156 ;
157 [label="gini = 0.0\nsamples = 2\nvalue = [0, 2]", fillcolor="#399de5"] ;
155 -> 157 ;
158 [label="gini = 0.0\nsamples = 11\nvalue = [11, 0]", fillcolor="#e58139"] ;
154 -> 158 ;
159 [label="X[1] <= 0.5\ngini = 0.5\nsamples = 5\nvalue = [2, 3]", fillcolor="#bddef6"] ;
153 -> 159 ;
160 [label="gini = 0.0\nsamples = 2\nvalue = [2, 0]", fillcolor="#e58139"] ;
159 -> 160 ;
161 [label="gini = 0.0\nsamples = 3\nvalue = [0, 3]", fillcolor="#399de5"] ;
159 -> 161 ;
162 [label="X[3] <= 0.6\ngini = 0.2\nsamples = 12\nvalue = [11, 1]", fillcolor="#e78c4b"] ;
144 -> 162 ;
163 [label="gini = 0.0\nsamples = 9\nvalue = [9, 0]", fillcolor="#e58139"] ;
162 -> 163 ;
164 [label="X[8] <= 0.6\ngini = 0.4\nsamples = 3\nvalue = [2, 1]", fillcolor="#f2c09c"] ;
162 -> 164 ;
165 [label="gini = 0.0\nsamples = 2\nvalue = [2, 0]", fillcolor="#e58139"] ;
164 -> 165 ;
166 [label="gini = 0.0\nsamples = 1\nvalue = [0, 1]", fillcolor="#399de5"] ;
164 -> 166 ;
167 [label="X[8] <= 0.2\ngini = 0.5\nsamples = 12\nvalue = [6, 6]", fillcolor="#ffffff"] ;
125 -> 167 ;
168 [label="gini = 0.0\nsamples = 4\nvalue = [4, 0]", fillcolor="#e58139"] ;
167 -> 168 ;
169 [label="X[2] <= 0.2\ngini = 0.4\nsamples = 8\nvalue = [2, 6]", fillcolor="#7bbeee"] ;
167 -> 169 ;
170 [label="gini = 0.0\nsamples = 5\nvalue = [0, 5]", fillcolor="#399de5"] ;
169 -> 170 ;
171 [label="X[14] <= 0.0\ngini = 0.4\nsamples = 3\nvalue = [2, 1]", fillcolor="#f2c09c"] ;
169 -> 171 ;
172 [label="gini = 0.0\nsamples = 2\nvalue = [2, 0]", fillcolor="#e58139"] ;
171 -> 172 ;
173 [label="gini = 0.0\nsamples = 1\nvalue = [0, 1]", fillcolor="#399de5"] ;
171 -> 173 ;
174 [label="X[8] <= 0.9\ngini = 0.1\nsamples = 41\nvalue = [38, 3]", fillcolor="#e78b49"] ;
120 -> 174 ;
175 [label="X[8] <= 0.9\ngini = 0.1\nsamples = 40\nvalue = [38, 2]", fillcolor="#e68843"] ;
174 -> 175 ;
176 [label="X[8] <= 0.1\ngini = 0.1\nsamples = 37\nvalue = [36, 1]", fillcolor="#e6843e"] ;
175 -> 176 ;
177 [label="X[8] <= 0.1\ngini = 0.2\nsamples = 7\nvalue = [6, 1]", fillcolor="#e9965a"] ;
176 -> 177 ;
178 [label="gini = 0.0\nsamples = 6\nvalue = [6, 0]", fillcolor="#e58139"] ;
177 -> 178 ;
179 [label="gini = 0.0\nsamples = 1\nvalue = [0, 1]", fillcolor="#399de5"] ;
177 -> 179 ;
180 [label="gini = 0.0\nsamples = 30\nvalue = [30, 0]", fillcolor="#e58139"] ;
176 -> 180 ;
181 [label="X[3] <= 0.8\ngini = 0.4\nsamples = 3\nvalue = [2, 1]", fillcolor="#f2c09c"] ;
175 -> 181 ;
182 [label="gini = 0.0\nsamples = 1\nvalue = [0, 1]", fillcolor="#399de5"] ;
181 -> 182 ;
183 [label="gini = 0.0\nsamples = 2\nvalue = [2, 0]", fillcolor="#e58139"] ;
181 -> 183 ;
184 [label="gini = 0.0\nsamples = 1\nvalue = [0, 1]", fillcolor="#399de5"] ;
174 -> 184 ;
185 [label="gini = 0.0\nsamples = 11\nvalue = [11, 0]", fillcolor="#e58139"] ;
51 -> 185 ;
186 [label="X[9] <= 0.0\ngini = 0.4\nsamples = 6\nvalue = [2, 4]", fillcolor="#9ccef2"] ;
50 -> 186 ;
187 [label="gini = 0.0\nsamples = 4\nvalue = [0, 4]", fillcolor="#399de5"] ;
186 -> 187 ;
188 [label="gini = 0.0\nsamples = 2\nvalue = [2, 0]", fillcolor="#e58139"] ;
186 -> 188 ;
189 [label="X[4] <= 0.7\ngini = 0.1\nsamples = 1195\nvalue = [1108, 87]", fillcolor="#e78b49"] ;
5 -> 189 ;
190 [label="X[7] <= 0.0\ngini = 0.1\nsamples = 1158\nvalue = [1081, 77]", fillcolor="#e78a47"] ;
189 -> 190 ;
191 [label="X[12] <= 0.2\ngini = 0.2\nsamples = 587\nvalue = [536, 51]", fillcolor="#e78d4c"] ;
190 -> 191 ;
192 [label="gini = 0.0\nsamples = 1\nvalue = [0, 1]", fillcolor="#399de5"] ;
191 -> 192 ;
193 [label="X[12] <= 0.7\ngini = 0.2\nsamples = 586\nvalue = [536, 50]", fillcolor="#e78d4b"] ;
191 -> 193 ;
194 [label="X[4] <= 0.7\ngini = 0.2\nsamples = 581\nvalue = [533, 48]", fillcolor="#e78c4b"] ;
193 -> 194 ;
195 [label="X[13] <= 0.0\ngini = 0.1\nsamples = 571\nvalue = [526, 45]", fillcolor="#e78c4a"] ;
194 -> 195 ;
196 [label="X[4] <= 0.6\ngini = 0.3\nsamples = 37\nvalue = [30, 7]", fillcolor="#eb9e67"] ;
195 -> 196 ;
197 [label="X[14] <= 0.0\ngini = 0.2\nsamples = 33\nvalue = [29, 4]", fillcolor="#e99254"] ;
196 -> 197 ;
198 [label="X[4] <= 0.4\ngini = 0.1\nsamples = 24\nvalue = [23, 1]", fillcolor="#e68642"] ;
197 -> 198 ;
199 [label="X[6] <= 0.0\ngini = 0.4\nsamples = 3\nvalue = [2, 1]", fillcolor="#f2c09c"] ;
198 -> 199 ;
200 [label="gini = 0.0\nsamples = 2\nvalue = [2, 0]", fillcolor="#e58139"] ;
199 -> 200 ;
201 [label="gini = 0.0\nsamples = 1\nvalue = [0, 1]", fillcolor="#399de5"] ;
199 -> 201 ;
202 [label="gini = 0.0\nsamples = 21\nvalue = [21, 0]", fillcolor="#e58139"] ;
198 -> 202 ;
203 [label="X[3] <= 0.1\ngini = 0.4\nsamples = 9\nvalue = [6, 3]", fillcolor="#f2c09c"] ;
197 -> 203 ;
204 [label="X[14] <= 0.0\ngini = 0.2\nsamples = 7\nvalue = [6, 1]", fillcolor="#e9965a"] ;
203 -> 204 ;
205 [label="gini = 0.0\nsamples = 1\nvalue = [0, 1]", fillcolor="#399de5"] ;
204 -> 205 ;
206 [label="gini = 0.0\nsamples = 6\nvalue = [6, 0]", fillcolor="#e58139"] ;
204 -> 206 ;
207 [label="gini = 0.0\nsamples = 2\nvalue = [0, 2]", fillcolor="#399de5"] ;
203 -> 207 ;
208 [label="X[14] <= 0.0\ngini = 0.4\nsamples = 4\nvalue = [1, 3]", fillcolor="#7bbeee"] ;
196 -> 208 ;
209 [label="gini = 0.0\nsamples = 3\nvalue = [0, 3]", fillcolor="#399de5"] ;
208 -> 209 ;
210 [label="gini = 0.0\nsamples = 1\nvalue = [1, 0]", fillcolor="#e58139"] ;
208 -> 210 ;
211 [label="X[14] <= 0.0\ngini = 0.1\nsamples = 534\nvalue = [496, 38]", fillcolor="#e78b48"] ;
195 -> 211 ;
212 [label="X[14] <= 0.0\ngini = 0.4\nsamples = 6\nvalue = [4, 2]", fillcolor="#f2c09c"] ;
211 -> 212 ;
213 [label="gini = 0.0\nsamples = 4\nvalue = [4, 0]", fillcolor="#e58139"] ;
212 -> 213 ;
214 [label="gini = 0.0\nsamples = 2\nvalue = [0, 2]", fillcolor="#399de5"] ;
212 -> 214 ;
215 [label="X[8] <= 0.5\ngini = 0.1\nsamples = 528\nvalue = [492, 36]", fillcolor="#e78a47"] ;
211 -> 215 ;
216 [label="X[8] <= 0.5\ngini = 0.2\nsamples = 244\nvalue = [220, 24]", fillcolor="#e88f4f"] ;
215 -> 216 ;
217 [label="X[13] <= 0.7\ngini = 0.2\nsamples = 243\nvalue = [220, 23]", fillcolor="#e88e4e"] ;
216 -> 217 ;
218 [label="X[4] <= 0.5\ngini = 0.2\nsamples = 242\nvalue = [220, 22]", fillcolor="#e88e4d"] ;
217 -> 218 ;
219 [label="X[10] <= 0.0\ngini = 0.1\nsamples = 163\nvalue = [153, 10]", fillcolor="#e78946"] ;
218 -> 219 ;
220 [label="X[2] <= 0.2\ngini = 0.1\nsamples = 123\nvalue = [118, 5]", fillcolor="#e68641"] ;
219 -> 220 ;
221 [label="X[14] <= 0.0\ngini = 0.0\nsamples = 102\nvalue = [100, 2]", fillcolor="#e6843d"] ;
220 -> 221 ;
222 [label="X[14] <= 0.0\ngini = 0.1\nsamples = 33\nvalue = [31, 2]", fillcolor="#e78946"] ;
221 -> 222 ;
223 [label="X[8] <= 0.3\ngini = 0.1\nsamples = 32\nvalue = [31, 1]", fillcolor="#e6853f"] ;
222 -> 223 ;
224 [label="X[4] <= 0.3\ngini = 0.3\nsamples = 5\nvalue = [4, 1]", fillcolor="#eca06a"] ;
223 -> 224 ;
225 [label="gini = 0.0\nsamples = 1\nvalue = [0, 1]", fillcolor="#399de5"] ;
224 -> 225 ;
226 [label="gini = 0.0\nsamples = 4\nvalue = [4, 0]", fillcolor="#e58139"] ;
224 -> 226 ;
227 [label="gini = 0.0\nsamples = 27\nvalue = [27, 0]", fillcolor="#e58139"] ;
223 -> 227 ;
228 [label="gini = 0.0\nsamples = 1\nvalue = [0, 1]", fillcolor="#399de5"] ;
222 -> 228 ;
229 [label="gini = 0.0\nsamples = 69\nvalue = [69, 0]", fillcolor="#e58139"] ;
221 -> 229 ;
230 [label="X[0] <= 1.5\ngini = 0.2\nsamples = 21\nvalue = [18, 3]", fillcolor="#e9965a"] ;
220 -> 230 ;
231 [label="X[8] <= 0.1\ngini = 0.1\nsamples = 16\nvalue = [15, 1]", fillcolor="#e78946"] ;
230 -> 231 ;
232 [label="X[14] <= 0.0\ngini = 0.5\nsamples = 2\nvalue = [1, 1]", fillcolor="#ffffff"] ;
231 -> 232 ;
233 [label="gini = 0.0\nsamples = 1\nvalue = [0, 1]", fillcolor="#399de5"] ;
232 -> 233 ;
234 [label="gini = 0.0\nsamples = 1\nvalue = [1, 0]", fillcolor="#e58139"] ;
232 -> 234 ;
235 [label="gini = 0.0\nsamples = 14\nvalue = [14, 0]", fillcolor="#e58139"] ;
231 -> 235 ;
236 [label="X[13] <= 0.4\ngini = 0.5\nsamples = 5\nvalue = [3, 2]", fillcolor="#f6d5bd"] ;
230 -> 236 ;
237 [label="gini = 0.0\nsamples = 3\nvalue = [3, 0]", fillcolor="#e58139"] ;
236 -> 237 ;
238 [label="gini = 0.0\nsamples = 2\nvalue = [0, 2]", fillcolor="#399de5"] ;
236 -> 238 ;
239 [label="X[14] <= 0.0\ngini = 0.2\nsamples = 40\nvalue = [35, 5]", fillcolor="#e99355"] ;
219 -> 239 ;
240 [label="gini = 0.0\nsamples = 1\nvalue = [0, 1]", fillcolor="#399de5"] ;
239 -> 240 ;
241 [label="X[12] <= 0.4\ngini = 0.2\nsamples = 39\nvalue = [35, 4]", fillcolor="#e88f50"] ;
239 -> 241 ;
242 [label="X[4] <= 0.5\ngini = 0.1\nsamples = 28\nvalue = [27, 1]", fillcolor="#e68640"] ;
241 -> 242 ;
243 [label="gini = 0.0\nsamples = 21\nvalue = [21, 0]", fillcolor="#e58139"] ;
242 -> 243 ;
244 [label="X[13] <= 0.3\ngini = 0.2\nsamples = 7\nvalue = [6, 1]", fillcolor="#e9965a"] ;
242 -> 244 ;
245 [label="gini = 0.0\nsamples = 6\nvalue = [6, 0]", fillcolor="#e58139"] ;
244 -> 245 ;
246 [label="gini = 0.0\nsamples = 1\nvalue = [0, 1]", fillcolor="#399de5"] ;
244 -> 246 ;
247 [label="X[12] <= 0.5\ngini = 0.4\nsamples = 11\nvalue = [8, 3]", fillcolor="#efb083"] ;
241 -> 247 ;
248 [label="X[1] <= 0.5\ngini = 0.5\nsamples = 5\nvalue = [2, 3]", fillcolor="#bddef6"] ;
247 -> 248 ;
249 [label="gini = 0.0\nsamples = 2\nvalue = [2, 0]", fillcolor="#e58139"] ;
248 -> 249 ;
250 [label="gini = 0.0\nsamples = 3\nvalue = [0, 3]", fillcolor="#399de5"] ;
248 -> 250 ;
251 [label="gini = 0.0\nsamples = 6\nvalue = [6, 0]", fillcolor="#e58139"] ;
247 -> 251 ;
252 [label="X[4] <= 0.5\ngini = 0.3\nsamples = 79\nvalue = [67, 12]", fillcolor="#ea985c"] ;
218 -> 252 ;
253 [label="X[13] <= 0.4\ngini = 0.4\nsamples = 4\nvalue = [1, 3]", fillcolor="#7bbeee"] ;
252 -> 253 ;
254 [label="gini = 0.0\nsamples = 3\nvalue = [0, 3]", fillcolor="#399de5"] ;
253 -> 254 ;
255 [label="gini = 0.0\nsamples = 1\nvalue = [1, 0]", fillcolor="#e58139"] ;
253 -> 255 ;
256 [label="X[2] <= 0.3\ngini = 0.2\nsamples = 75\nvalue = [66, 9]", fillcolor="#e99254"] ;
252 -> 256 ;
257 [label="X[0] <= 3.5\ngini = 0.2\nsamples = 70\nvalue = [64, 6]", fillcolor="#e78d4c"] ;
256 -> 257 ;
258 [label="X[4] <= 0.6\ngini = 0.1\nsamples = 66\nvalue = [62, 4]", fillcolor="#e78946"] ;
257 -> 258 ;
259 [label="gini = 0.0\nsamples = 39\nvalue = [39, 0]", fillcolor="#e58139"] ;
258 -> 259 ;
260 [label="X[4] <= 0.6\ngini = 0.3\nsamples = 27\nvalue = [23, 4]", fillcolor="#ea975b"] ;
258 -> 260 ;
261 [label="gini = 0.0\nsamples = 2\nvalue = [0, 2]", fillcolor="#399de5"] ;
260 -> 261 ;
262 [label="X[13] <= 0.1\ngini = 0.1\nsamples = 25\nvalue = [23, 2]", fillcolor="#e78c4a"] ;
260 -> 262 ;
263 [label="gini = 0.0\nsamples = 1\nvalue = [0, 1]", fillcolor="#399de5"] ;
262 -> 263 ;
264 [label="X[14] <= 0.0\ngini = 0.1\nsamples = 24\nvalue = [23, 1]", fillcolor="#e68642"] ;
262 -> 264 ;
265 [label="gini = 0.0\nsamples = 22\nvalue = [22, 0]", fillcolor="#e58139"] ;
264 -> 265 ;
266 [label="X[3] <= 0.5\ngini = 0.5\nsamples = 2\nvalue = [1, 1]", fillcolor="#ffffff"] ;
264 -> 266 ;
267 [label="gini = 0.0\nsamples = 1\nvalue = [0, 1]", fillcolor="#399de5"] ;
266 -> 267 ;
268 [label="gini = 0.0\nsamples = 1\nvalue = [1, 0]", fillcolor="#e58139"] ;
266 -> 268 ;
269 [label="X[13] <= 0.4\ngini = 0.5\nsamples = 4\nvalue = [2, 2]", fillcolor="#ffffff"] ;
257 -> 269 ;
270 [label="gini = 0.0\nsamples = 2\nvalue = [2, 0]", fillcolor="#e58139"] ;
269 -> 270 ;
271 [label="gini = 0.0\nsamples = 2\nvalue = [0, 2]", fillcolor="#399de5"] ;
269 -> 271 ;
272 [label="X[0] <= 1.5\ngini = 0.5\nsamples = 5\nvalue = [2, 3]", fillcolor="#bddef6"] ;
256 -> 272 ;
273 [label="gini = 0.0\nsamples = 2\nvalue = [0, 2]", fillcolor="#399de5"] ;
272 -> 273 ;
274 [label="X[12] <= 0.4\ngini = 0.4\nsamples = 3\nvalue = [2, 1]", fillcolor="#f2c09c"] ;
272 -> 274 ;
275 [label="gini = 0.0\nsamples = 2\nvalue = [2, 0]", fillcolor="#e58139"] ;
274 -> 275 ;
276 [label="gini = 0.0\nsamples = 1\nvalue = [0, 1]", fillcolor="#399de5"] ;
274 -> 276 ;
277 [label="gini = 0.0\nsamples = 1\nvalue = [0, 1]", fillcolor="#399de5"] ;
217 -> 277 ;
278 [label="gini = 0.0\nsamples = 1\nvalue = [0, 1]", fillcolor="#399de5"] ;
216 -> 278 ;
279 [label="X[12] <= 0.2\ngini = 0.1\nsamples = 284\nvalue = [272, 12]", fillcolor="#e68742"] ;
215 -> 279 ;
280 [label="X[3] <= 0.8\ngini = 0.5\nsamples = 2\nvalue = [1, 1]", fillcolor="#ffffff"] ;
279 -> 280 ;
281 [label="gini = 0.0\nsamples = 1\nvalue = [1, 0]", fillcolor="#e58139"] ;
280 -> 281 ;
282 [label="gini = 0.0\nsamples = 1\nvalue = [0, 1]", fillcolor="#399de5"] ;
280 -> 282 ;
283 [label="X[8] <= 0.7\ngini = 0.1\nsamples = 282\nvalue = [271, 11]", fillcolor="#e68641"] ;
279 -> 283 ;
284 [label="X[12] <= 0.7\ngini = 0.0\nsamples = 167\nvalue = [165, 2]", fillcolor="#e5833b"] ;
283 -> 284 ;
285 [label="X[8] <= 0.5\ngini = 0.0\nsamples = 166\nvalue = [165, 1]", fillcolor="#e5823a"] ;
284 -> 285 ;
286 [label="X[4] <= 0.4\ngini = 0.1\nsamples = 16\nvalue = [15, 1]", fillcolor="#e78946"] ;
285 -> 286 ;
287 [label="gini = 0.0\nsamples = 1\nvalue = [0, 1]", fillcolor="#399de5"] ;
286 -> 287 ;
288 [label="gini = 0.0\nsamples = 15\nvalue = [15, 0]", fillcolor="#e58139"] ;
286 -> 288 ;
289 [label="gini = 0.0\nsamples = 150\nvalue = [150, 0]", fillcolor="#e58139"] ;
285 -> 289 ;
290 [label="gini = 0.0\nsamples = 1\nvalue = [0, 1]", fillcolor="#399de5"] ;
284 -> 290 ;
291 [label="X[8] <= 0.8\ngini = 0.1\nsamples = 115\nvalue = [106, 9]", fillcolor="#e78c4a"] ;
283 -> 291 ;
292 [label="X[1] <= 0.5\ngini = 0.5\nsamples = 6\nvalue = [3, 3]", fillcolor="#ffffff"] ;
291 -> 292 ;
293 [label="gini = 0.0\nsamples = 3\nvalue = [0, 3]", fillcolor="#399de5"] ;
292 -> 293 ;
294 [label="gini = 0.0\nsamples = 3\nvalue = [3, 0]", fillcolor="#e58139"] ;
292 -> 294 ;
295 [label="X[4] <= 0.5\ngini = 0.1\nsamples = 109\nvalue = [103, 6]", fillcolor="#e78845"] ;
291 -> 295 ;
296 [label="gini = 0.0\nsamples = 48\nvalue = [48, 0]", fillcolor="#e58139"] ;
295 -> 296 ;
297 [label="X[4] <= 0.5\ngini = 0.2\nsamples = 61\nvalue = [55, 6]", fillcolor="#e88f4f"] ;
295 -> 297 ;
298 [label="gini = 0.0\nsamples = 2\nvalue = [0, 2]", fillcolor="#399de5"] ;
297 -> 298 ;
299 [label="X[3] <= 0.8\ngini = 0.1\nsamples = 59\nvalue = [55, 4]", fillcolor="#e78a47"] ;
297 -> 299 ;
300 [label="X[2] <= 0.2\ngini = 0.0\nsamples = 46\nvalue = [45, 1]", fillcolor="#e6843d"] ;
299 -> 300 ;
301 [label="gini = 0.0\nsamples = 37\nvalue = [37, 0]", fillcolor="#e58139"] ;
300 -> 301 ;
302 [label="X[10] <= 0.0\ngini = 0.2\nsamples = 9\nvalue = [8, 1]", fillcolor="#e89152"] ;
300 -> 302 ;
303 [label="gini = 0.0\nsamples = 6\nvalue = [6, 0]", fillcolor="#e58139"] ;
302 -> 303 ;
304 [label="X[14] <= 0.0\ngini = 0.4\nsamples = 3\nvalue = [2, 1]", fillcolor="#f2c09c"] ;
302 -> 304 ;
305 [label="gini = 0.0\nsamples = 1\nvalue = [0, 1]", fillcolor="#399de5"] ;
304 -> 305 ;
306 [label="gini = 0.0\nsamples = 2\nvalue = [2, 0]", fillcolor="#e58139"] ;
304 -> 306 ;
307 [label="X[12] <= 0.4\ngini = 0.4\nsamples = 13\nvalue = [10, 3]", fillcolor="#eda774"] ;
299 -> 307 ;
308 [label="X[12] <= 0.4\ngini = 0.5\nsamples = 6\nvalue = [3, 3]", fillcolor="#ffffff"] ;
307 -> 308 ;
309 [label="X[12] <= 0.3\ngini = 0.4\nsamples = 4\nvalue = [3, 1]", fillcolor="#eeab7b"] ;
308 -> 309 ;
310 [label="gini = 0.0\nsamples = 1\nvalue = [0, 1]", fillcolor="#399de5"] ;
309 -> 310 ;
311 [label="gini = 0.0\nsamples = 3\nvalue = [3, 0]", fillcolor="#e58139"] ;
309 -> 311 ;
312 [label="gini = 0.0\nsamples = 2\nvalue = [0, 2]", fillcolor="#399de5"] ;
308 -> 312 ;
313 [label="gini = 0.0\nsamples = 7\nvalue = [7, 0]", fillcolor="#e58139"] ;
307 -> 313 ;
314 [label="X[13] <= 0.5\ngini = 0.4\nsamples = 10\nvalue = [7, 3]", fillcolor="#f0b78e"] ;
194 -> 314 ;
315 [label="X[14] <= 0.0\ngini = 0.2\nsamples = 8\nvalue = [7, 1]", fillcolor="#e99355"] ;
314 -> 315 ;
316 [label="gini = 0.0\nsamples = 1\nvalue = [0, 1]", fillcolor="#399de5"] ;
315 -> 316 ;
317 [label="gini = 0.0\nsamples = 7\nvalue = [7, 0]", fillcolor="#e58139"] ;
315 -> 317 ;
318 [label="gini = 0.0\nsamples = 2\nvalue = [0, 2]", fillcolor="#399de5"] ;
314 -> 318 ;
319 [label="X[2] <= 0.0\ngini = 0.5\nsamples = 5\nvalue = [3, 2]", fillcolor="#f6d5bd"] ;
193 -> 319 ;
320 [label="gini = 0.0\nsamples = 2\nvalue = [2, 0]", fillcolor="#e58139"] ;
319 -> 320 ;
321 [label="X[8] <= 0.4\ngini = 0.4\nsamples = 3\nvalue = [1, 2]", fillcolor="#9ccef2"] ;
319 -> 321 ;
322 [label="gini = 0.0\nsamples = 1\nvalue = [1, 0]", fillcolor="#e58139"] ;
321 -> 322 ;
323 [label="gini = 0.0\nsamples = 2\nvalue = [0, 2]", fillcolor="#399de5"] ;
321 -> 323 ;
324 [label="X[8] <= 0.8\ngini = 0.1\nsamples = 571\nvalue = [545, 26]", fillcolor="#e68742"] ;
190 -> 324 ;
325 [label="X[2] <= 0.3\ngini = 0.1\nsamples = 424\nvalue = [410, 14]", fillcolor="#e68540"] ;
324 -> 325 ;
326 [label="X[13] <= 0.7\ngini = 0.0\nsamples = 390\nvalue = [380, 10]", fillcolor="#e6843e"] ;
325 -> 326 ;
327 [label="X[8] <= 0.0\ngini = 0.0\nsamples = 386\nvalue = [377, 9]", fillcolor="#e6843e"] ;
326 -> 327 ;
328 [label="X[4] <= 0.4\ngini = 0.4\nsamples = 4\nvalue = [3, 1]", fillcolor="#eeab7b"] ;
327 -> 328 ;
329 [label="gini = 0.0\nsamples = 1\nvalue = [0, 1]", fillcolor="#399de5"] ;
328 -> 329 ;
330 [label="gini = 0.0\nsamples = 3\nvalue = [3, 0]", fillcolor="#e58139"] ;
328 -> 330 ;
331 [label="X[4] <= 0.4\ngini = 0.0\nsamples = 382\nvalue = [374, 8]", fillcolor="#e6843d"] ;
327 -> 331 ;
332 [label="gini = 0.0\nsamples = 136\nvalue = [136, 0]", fillcolor="#e58139"] ;
331 -> 332 ;
333 [label="X[4] <= 0.4\ngini = 0.1\nsamples = 246\nvalue = [238, 8]", fillcolor="#e68540"] ;
331 -> 333 ;
334 [label="gini = 0.0\nsamples = 1\nvalue = [0, 1]", fillcolor="#399de5"] ;
333 -> 334 ;
335 [label="X[14] <= 0.0\ngini = 0.1\nsamples = 245\nvalue = [238, 7]", fillcolor="#e6853f"] ;
333 -> 335 ;
336 [label="X[3] <= 0.8\ngini = 0.4\nsamples = 3\nvalue = [2, 1]", fillcolor="#f2c09c"] ;
335 -> 336 ;
337 [label="gini = 0.0\nsamples = 2\nvalue = [2, 0]", fillcolor="#e58139"] ;
336 -> 337 ;
338 [label="gini = 0.0\nsamples = 1\nvalue = [0, 1]", fillcolor="#399de5"] ;
336 -> 338 ;
339 [label="X[8] <= 0.4\ngini = 0.0\nsamples = 242\nvalue = [236, 6]", fillcolor="#e6843e"] ;
335 -> 339 ;
340 [label="X[8] <= 0.4\ngini = 0.1\nsamples = 149\nvalue = [143, 6]", fillcolor="#e68641"] ;
339 -> 340 ;
341 [label="X[13] <= 0.2\ngini = 0.1\nsamples = 148\nvalue = [143, 5]", fillcolor="#e68540"] ;
340 -> 341 ;
342 [label="gini = 0.0\nsamples = 60\nvalue = [60, 0]", fillcolor="#e58139"] ;
341 -> 342 ;
343 [label="X[13] <= 0.2\ngini = 0.1\nsamples = 88\nvalue = [83, 5]", fillcolor="#e78945"] ;
341 -> 343 ;
344 [label="X[12] <= 0.4\ngini = 0.5\nsamples = 2\nvalue = [1, 1]", fillcolor="#ffffff"] ;
343 -> 344 ;
345 [label="gini = 0.0\nsamples = 1\nvalue = [0, 1]", fillcolor="#399de5"] ;
344 -> 345 ;
346 [label="gini = 0.0\nsamples = 1\nvalue = [1, 0]", fillcolor="#e58139"] ;
344 -> 346 ;
347 [label="X[12] <= 0.4\ngini = 0.1\nsamples = 86\nvalue = [82, 4]", fillcolor="#e68743"] ;
343 -> 347 ;
348 [label="X[12] <= 0.4\ngini = 0.1\nsamples = 56\nvalue = [52, 4]", fillcolor="#e78b48"] ;
347 -> 348 ;
349 [label="X[14] <= 0.0\ngini = 0.1\nsamples = 55\nvalue = [52, 3]", fillcolor="#e68844"] ;
348 -> 349 ;
350 [label="gini = 0.0\nsamples = 23\nvalue = [23, 0]", fillcolor="#e58139"] ;
349 -> 350 ;
351 [label="X[14] <= 0.0\ngini = 0.2\nsamples = 32\nvalue = [29, 3]", fillcolor="#e88e4d"] ;
349 -> 351 ;
352 [label="gini = 0.0\nsamples = 2\nvalue = [0, 2]", fillcolor="#399de5"] ;
351 -> 352 ;
353 [label="X[2] <= 0.2\ngini = 0.1\nsamples = 30\nvalue = [29, 1]", fillcolor="#e68540"] ;
351 -> 353 ;
354 [label="X[10] <= 0.0\ngini = 0.2\nsamples = 7\nvalue = [6, 1]", fillcolor="#e9965a"] ;
353 -> 354 ;
355 [label="gini = 0.0\nsamples = 6\nvalue = [6, 0]", fillcolor="#e58139"] ;
354 -> 355 ;
356 [label="gini = 0.0\nsamples = 1\nvalue = [0, 1]", fillcolor="#399de5"] ;
354 -> 356 ;
357 [label="gini = 0.0\nsamples = 23\nvalue = [23, 0]", fillcolor="#e58139"] ;
353 -> 357 ;
358 [label="gini = 0.0\nsamples = 1\nvalue = [0, 1]", fillcolor="#399de5"] ;
348 -> 358 ;
359 [label="gini = 0.0\nsamples = 30\nvalue = [30, 0]", fillcolor="#e58139"] ;
347 -> 359 ;
360 [label="gini = 0.0\nsamples = 1\nvalue = [0, 1]", fillcolor="#399de5"] ;
340 -> 360 ;
361 [label="gini = 0.0\nsamples = 93\nvalue = [93, 0]", fillcolor="#e58139"] ;
339 -> 361 ;
362 [label="X[1] <= 0.5\ngini = 0.4\nsamples = 4\nvalue = [3, 1]", fillcolor="#eeab7b"] ;
326 -> 362 ;
363 [label="gini = 0.0\nsamples = 1\nvalue = [0, 1]", fillcolor="#399de5"] ;
362 -> 363 ;
364 [label="gini = 0.0\nsamples = 3\nvalue = [3, 0]", fillcolor="#e58139"] ;
362 -> 364 ;
365 [label="X[4] <= 0.3\ngini = 0.2\nsamples = 34\nvalue = [30, 4]", fillcolor="#e89253"] ;
325 -> 365 ;
366 [label="gini = 0.0\nsamples = 1\nvalue = [0, 1]", fillcolor="#399de5"] ;
365 -> 366 ;
367 [label="X[14] <= 0.0\ngini = 0.2\nsamples = 33\nvalue = [30, 3]", fillcolor="#e88e4d"] ;
365 -> 367 ;
368 [label="X[14] <= 0.0\ngini = 0.1\nsamples = 32\nvalue = [30, 2]", fillcolor="#e78946"] ;
367 -> 368 ;
369 [label="gini = 0.0\nsamples = 21\nvalue = [21, 0]", fillcolor="#e58139"] ;
368 -> 369 ;
370 [label="X[14] <= 0.0\ngini = 0.3\nsamples = 11\nvalue = [9, 2]", fillcolor="#eb9d65"] ;
368 -> 370 ;
371 [label="gini = 0.0\nsamples = 2\nvalue = [0, 2]", fillcolor="#399de5"] ;
370 -> 371 ;
372 [label="gini = 0.0\nsamples = 9\nvalue = [9, 0]", fillcolor="#e58139"] ;
370 -> 372 ;
373 [label="gini = 0.0\nsamples = 1\nvalue = [0, 1]", fillcolor="#399de5"] ;
367 -> 373 ;
374 [label="X[8] <= 0.8\ngini = 0.1\nsamples = 147\nvalue = [135, 12]", fillcolor="#e78c4b"] ;
324 -> 374 ;
375 [label="gini = 0.0\nsamples = 2\nvalue = [0, 2]", fillcolor="#399de5"] ;
374 -> 375 ;
376 [label="X[1] <= 0.5\ngini = 0.1\nsamples = 145\nvalue = [135, 10]", fillcolor="#e78a48"] ;
374 -> 376 ;
377 [label="X[14] <= 0.0\ngini = 0.2\nsamples = 61\nvalue = [54, 7]", fillcolor="#e89153"] ;
376 -> 377 ;
378 [label="X[4] <= 0.4\ngini = 0.4\nsamples = 15\nvalue = [11, 4]", fillcolor="#eeaf81"] ;
377 -> 378 ;
379 [label="X[8] <= 0.8\ngini = 0.3\nsamples = 13\nvalue = [11, 2]", fillcolor="#ea985d"] ;
378 -> 379 ;
380 [label="gini = 0.0\nsamples = 1\nvalue = [0, 1]", fillcolor="#399de5"] ;
379 -> 380 ;
381 [label="X[6] <= 0.0\ngini = 0.2\nsamples = 12\nvalue = [11, 1]", fillcolor="#e78c4b"] ;
379 -> 381 ;
382 [label="X[4] <= 0.3\ngini = 0.4\nsamples = 3\nvalue = [2, 1]", fillcolor="#f2c09c"] ;
381 -> 382 ;
383 [label="gini = 0.0\nsamples = 2\nvalue = [2, 0]", fillcolor="#e58139"] ;
382 -> 383 ;
384 [label="gini = 0.0\nsamples = 1\nvalue = [0, 1]", fillcolor="#399de5"] ;
382 -> 384 ;
385 [label="gini = 0.0\nsamples = 9\nvalue = [9, 0]", fillcolor="#e58139"] ;
381 -> 385 ;
386 [label="gini = 0.0\nsamples = 2\nvalue = [0, 2]", fillcolor="#399de5"] ;
378 -> 386 ;
387 [label="X[2] <= 0.2\ngini = 0.1\nsamples = 46\nvalue = [43, 3]", fillcolor="#e78a47"] ;
377 -> 387 ;
388 [label="X[4] <= 0.5\ngini = 0.3\nsamples = 19\nvalue = [16, 3]", fillcolor="#ea995e"] ;
387 -> 388 ;
389 [label="X[14] <= 0.0\ngini = 0.4\nsamples = 12\nvalue = [9, 3]", fillcolor="#eeab7b"] ;
388 -> 389 ;
390 [label="gini = 0.0\nsamples = 6\nvalue = [6, 0]", fillcolor="#e58139"] ;
389 -> 390 ;
391 [label="X[0] <= 0.5\ngini = 0.5\nsamples = 6\nvalue = [3, 3]", fillcolor="#ffffff"] ;
389 -> 391 ;
392 [label="gini = 0.0\nsamples = 2\nvalue = [2, 0]", fillcolor="#e58139"] ;
391 -> 392 ;
393 [label="X[12] <= 0.5\ngini = 0.4\nsamples = 4\nvalue = [1, 3]", fillcolor="#7bbeee"] ;
391 -> 393 ;
394 [label="gini = 0.0\nsamples = 3\nvalue = [0, 3]", fillcolor="#399de5"] ;
393 -> 394 ;
395 [label="gini = 0.0\nsamples = 1\nvalue = [1, 0]", fillcolor="#e58139"] ;
393 -> 395 ;
396 [label="gini = 0.0\nsamples = 7\nvalue = [7, 0]", fillcolor="#e58139"] ;
388 -> 396 ;
397 [label="gini = 0.0\nsamples = 27\nvalue = [27, 0]", fillcolor="#e58139"] ;
387 -> 397 ;
398 [label="X[12] <= 0.4\ngini = 0.1\nsamples = 84\nvalue = [81, 3]", fillcolor="#e68640"] ;
376 -> 398 ;
399 [label="X[12] <= 0.4\ngini = 0.1\nsamples = 38\nvalue = [35, 3]", fillcolor="#e78c4a"] ;
398 -> 399 ;
400 [label="X[2] <= 0.1\ngini = 0.1\nsamples = 37\nvalue = [35, 2]", fillcolor="#e68844"] ;
399 -> 400 ;
401 [label="X[3] <= 0.6\ngini = 0.5\nsamples = 2\nvalue = [1, 1]", fillcolor="#ffffff"] ;
400 -> 401 ;
402 [label="gini = 0.0\nsamples = 1\nvalue = [0, 1]", fillcolor="#399de5"] ;
401 -> 402 ;
403 [label="gini = 0.0\nsamples = 1\nvalue = [1, 0]", fillcolor="#e58139"] ;
401 -> 403 ;
404 [label="X[4] <= 0.6\ngini = 0.1\nsamples = 35\nvalue = [34, 1]", fillcolor="#e6853f"] ;
400 -> 404 ;
405 [label="gini = 0.0\nsamples = 32\nvalue = [32, 0]", fillcolor="#e58139"] ;
404 -> 405 ;
406 [label="X[8] <= 1.0\ngini = 0.4\nsamples = 3\nvalue = [2, 1]", fillcolor="#f2c09c"] ;
404 -> 406 ;
407 [label="gini = 0.0\nsamples = 2\nvalue = [2, 0]", fillcolor="#e58139"] ;
406 -> 407 ;
408 [label="gini = 0.0\nsamples = 1\nvalue = [0, 1]", fillcolor="#399de5"] ;
406 -> 408 ;
409 [label="gini = 0.0\nsamples = 1\nvalue = [0, 1]", fillcolor="#399de5"] ;
399 -> 409 ;
410 [label="gini = 0.0\nsamples = 46\nvalue = [46, 0]", fillcolor="#e58139"] ;
398 -> 410 ;
411 [label="X[1] <= 0.5\ngini = 0.4\nsamples = 37\nvalue = [27, 10]", fillcolor="#efb082"] ;
189 -> 411 ;
412 [label="X[2] <= 0.2\ngini = 0.5\nsamples = 16\nvalue = [8, 8]", fillcolor="#ffffff"] ;
411 -> 412 ;
413 [label="gini = 0.0\nsamples = 4\nvalue = [0, 4]", fillcolor="#399de5"] ;
412 -> 413 ;
414 [label="X[13] <= 0.1\ngini = 0.4\nsamples = 12\nvalue = [8, 4]", fillcolor="#f2c09c"] ;
412 -> 414 ;
415 [label="X[3] <= 0.2\ngini = 0.5\nsamples = 7\nvalue = [3, 4]", fillcolor="#cee6f8"] ;
414 -> 415 ;
416 [label="X[14] <= 0.0\ngini = 0.4\nsamples = 4\nvalue = [3, 1]", fillcolor="#eeab7b"] ;
415 -> 416 ;
417 [label="gini = 0.0\nsamples = 1\nvalue = [0, 1]", fillcolor="#399de5"] ;
416 -> 417 ;
418 [label="gini = 0.0\nsamples = 3\nvalue = [3, 0]", fillcolor="#e58139"] ;
416 -> 418 ;
419 [label="gini = 0.0\nsamples = 3\nvalue = [0, 3]", fillcolor="#399de5"] ;
415 -> 419 ;
420 [label="gini = 0.0\nsamples = 5\nvalue = [5, 0]", fillcolor="#e58139"] ;
414 -> 420 ;
421 [label="X[4] <= 0.7\ngini = 0.2\nsamples = 21\nvalue = [19, 2]", fillcolor="#e88e4e"] ;
411 -> 421 ;
422 [label="gini = 0.0\nsamples = 1\nvalue = [0, 1]", fillcolor="#399de5"] ;
421 -> 422 ;
423 [label="X[14] <= 0.0\ngini = 0.1\nsamples = 20\nvalue = [19, 1]", fillcolor="#e68843"] ;
421 -> 423 ;
424 [label="gini = 0.0\nsamples = 16\nvalue = [16, 0]", fillcolor="#e58139"] ;
423 -> 424 ;
425 [label="X[8] <= 0.2\ngini = 0.4\nsamples = 4\nvalue = [3, 1]", fillcolor="#eeab7b"] ;
423 -> 425 ;
426 [label="gini = 0.0\nsamples = 3\nvalue = [3, 0]", fillcolor="#e58139"] ;
425 -> 426 ;
427 [label="gini = 0.0\nsamples = 1\nvalue = [0, 1]", fillcolor="#399de5"] ;
425 -> 427 ;
428 [label="X[4] <= 0.6\ngini = 0.3\nsamples = 510\nvalue = [397, 113]", fillcolor="#eca571"] ;
4 -> 428 ;
429 [label="X[4] <= 0.4\ngini = 0.4\nsamples = 417\nvalue = [312, 105]", fillcolor="#eeab7c"] ;
428 -> 429 ;
430 [label="X[13] <= 0.7\ngini = 0.2\nsamples = 114\nvalue = [101, 13]", fillcolor="#e89152"] ;
429 -> 430 ;
431 [label="X[12] <= 0.2\ngini = 0.2\nsamples = 113\nvalue = [101, 12]", fillcolor="#e89051"] ;
430 -> 431 ;
432 [label="X[12] <= 0.2\ngini = 0.5\nsamples = 4\nvalue = [2, 2]", fillcolor="#ffffff"] ;
431 -> 432 ;
433 [label="gini = 0.0\nsamples = 2\nvalue = [2, 0]", fillcolor="#e58139"] ;
432 -> 433 ;
434 [label="gini = 0.0\nsamples = 2\nvalue = [0, 2]", fillcolor="#399de5"] ;
432 -> 434 ;
435 [label="X[0] <= 3.5\ngini = 0.2\nsamples = 109\nvalue = [99, 10]", fillcolor="#e88e4d"] ;
431 -> 435 ;
436 [label="X[13] <= 0.2\ngini = 0.1\nsamples = 104\nvalue = [96, 8]", fillcolor="#e78c49"] ;
435 -> 436 ;
437 [label="gini = 0.0\nsamples = 27\nvalue = [27, 0]", fillcolor="#e58139"] ;
436 -> 437 ;
438 [label="X[13] <= 0.2\ngini = 0.2\nsamples = 77\nvalue = [69, 8]", fillcolor="#e89050"] ;
436 -> 438 ;
439 [label="gini = 0.0\nsamples = 1\nvalue = [0, 1]", fillcolor="#399de5"] ;
438 -> 439 ;
440 [label="X[8] <= 0.9\ngini = 0.2\nsamples = 76\nvalue = [69, 7]", fillcolor="#e88e4d"] ;
438 -> 440 ;
441 [label="X[7] <= 0.0\ngini = 0.1\nsamples = 70\nvalue = [65, 5]", fillcolor="#e78b48"] ;
440 -> 441 ;
442 [label="X[14] <= 0.0\ngini = 0.2\nsamples = 37\nvalue = [32, 5]", fillcolor="#e99558"] ;
441 -> 442 ;
443 [label="gini = 0.0\nsamples = 13\nvalue = [13, 0]", fillcolor="#e58139"] ;
442 -> 443 ;
444 [label="X[8] <= 0.6\ngini = 0.3\nsamples = 24\nvalue = [19, 5]", fillcolor="#eca26d"] ;
442 -> 444 ;
445 [label="X[4] <= 0.3\ngini = 0.2\nsamples = 20\nvalue = [18, 2]", fillcolor="#e88f4f"] ;
444 -> 445 ;
446 [label="X[12] <= 0.3\ngini = 0.4\nsamples = 7\nvalue = [5, 2]", fillcolor="#efb388"] ;
445 -> 446 ;
447 [label="X[13] <= 0.5\ngini = 0.4\nsamples = 3\nvalue = [1, 2]", fillcolor="#9ccef2"] ;
446 -> 447 ;
448 [label="gini = 0.0\nsamples = 2\nvalue = [0, 2]", fillcolor="#399de5"] ;
447 -> 448 ;
449 [label="gini = 0.0\nsamples = 1\nvalue = [1, 0]", fillcolor="#e58139"] ;
447 -> 449 ;
450 [label="gini = 0.0\nsamples = 4\nvalue = [4, 0]", fillcolor="#e58139"] ;
446 -> 450 ;
451 [label="gini = 0.0\nsamples = 13\nvalue = [13, 0]", fillcolor="#e58139"] ;
445 -> 451 ;
452 [label="X[13] <= 0.2\ngini = 0.4\nsamples = 4\nvalue = [1, 3]", fillcolor="#7bbeee"] ;
444 -> 452 ;
453 [label="gini = 0.0\nsamples = 1\nvalue = [1, 0]", fillcolor="#e58139"] ;
452 -> 453 ;
454 [label="gini = 0.0\nsamples = 3\nvalue = [0, 3]", fillcolor="#399de5"] ;
452 -> 454 ;
455 [label="gini = 0.0\nsamples = 33\nvalue = [33, 0]", fillcolor="#e58139"] ;
441 -> 455 ;
456 [label="X[12] <= 0.4\ngini = 0.4\nsamples = 6\nvalue = [4, 2]", fillcolor="#f2c09c"] ;
440 -> 456 ;
457 [label="gini = 0.0\nsamples = 4\nvalue = [4, 0]", fillcolor="#e58139"] ;
456 -> 457 ;
458 [label="gini = 0.0\nsamples = 2\nvalue = [0, 2]", fillcolor="#399de5"] ;
456 -> 458 ;
459 [label="X[2] <= 0.2\ngini = 0.5\nsamples = 5\nvalue = [3, 2]", fillcolor="#f6d5bd"] ;
435 -> 459 ;
460 [label="gini = 0.0\nsamples = 3\nvalue = [3, 0]", fillcolor="#e58139"] ;
459 -> 460 ;
461 [label="gini = 0.0\nsamples = 2\nvalue = [0, 2]", fillcolor="#399de5"] ;
459 -> 461 ;
462 [label="gini = 0.0\nsamples = 1\nvalue = [0, 1]", fillcolor="#399de5"] ;
430 -> 462 ;
463 [label="X[14] <= 0.0\ngini = 0.4\nsamples = 303\nvalue = [211, 92]", fillcolor="#f0b88f"] ;
429 -> 463 ;
464 [label="X[2] <= 0.2\ngini = 0.3\nsamples = 11\nvalue = [2, 9]", fillcolor="#65b3eb"] ;
463 -> 464 ;
465 [label="X[4] <= 0.4\ngini = 0.2\nsamples = 10\nvalue = [1, 9]", fillcolor="#4fa8e8"] ;
464 -> 465 ;
466 [label="gini = 0.0\nsamples = 1\nvalue = [1, 0]", fillcolor="#e58139"] ;
465 -> 466 ;
467 [label="gini = 0.0\nsamples = 9\nvalue = [0, 9]", fillcolor="#399de5"] ;
465 -> 467 ;
468 [label="gini = 0.0\nsamples = 1\nvalue = [1, 0]", fillcolor="#e58139"] ;
464 -> 468 ;
469 [label="X[12] <= 0.3\ngini = 0.4\nsamples = 292\nvalue = [209, 83]", fillcolor="#efb388"] ;
463 -> 469 ;
470 [label="X[4] <= 0.5\ngini = 0.5\nsamples = 67\nvalue = [38, 29]", fillcolor="#f9e1d0"] ;
469 -> 470 ;
471 [label="X[4] <= 0.4\ngini = 0.5\nsamples = 41\nvalue = [17, 24]", fillcolor="#c5e2f7"] ;
470 -> 471 ;
472 [label="X[12] <= 0.3\ngini = 0.4\nsamples = 11\nvalue = [8, 3]", fillcolor="#efb083"] ;
471 -> 472 ;
473 [label="X[8] <= 0.4\ngini = 0.5\nsamples = 6\nvalue = [3, 3]", fillcolor="#ffffff"] ;
472 -> 473 ;
474 [label="X[4] <= 0.4\ngini = 0.4\nsamples = 4\nvalue = [1, 3]", fillcolor="#7bbeee"] ;
473 -> 474 ;
475 [label="gini = 0.0\nsamples = 1\nvalue = [1, 0]", fillcolor="#e58139"] ;
474 -> 475 ;
476 [label="gini = 0.0\nsamples = 3\nvalue = [0, 3]", fillcolor="#399de5"] ;
474 -> 476 ;
477 [label="gini = 0.0\nsamples = 2\nvalue = [2, 0]", fillcolor="#e58139"] ;
473 -> 477 ;
478 [label="gini = 0.0\nsamples = 5\nvalue = [5, 0]", fillcolor="#e58139"] ;
472 -> 478 ;
479 [label="X[13] <= 0.1\ngini = 0.4\nsamples = 30\nvalue = [9, 21]", fillcolor="#8ec7f0"] ;
471 -> 479 ;
480 [label="gini = 0.0\nsamples = 8\nvalue = [0, 8]", fillcolor="#399de5"] ;
479 -> 480 ;
481 [label="X[13] <= 0.2\ngini = 0.5\nsamples = 22\nvalue = [9, 13]", fillcolor="#c2e1f7"] ;
479 -> 481 ;
482 [label="gini = 0.0\nsamples = 4\nvalue = [4, 0]", fillcolor="#e58139"] ;
481 -> 482 ;
483 [label="X[14] <= 0.0\ngini = 0.4\nsamples = 18\nvalue = [5, 13]", fillcolor="#85c3ef"] ;
481 -> 483 ;
484 [label="gini = 0.0\nsamples = 1\nvalue = [1, 0]", fillcolor="#e58139"] ;
483 -> 484 ;
485 [label="X[4] <= 0.5\ngini = 0.4\nsamples = 17\nvalue = [4, 13]", fillcolor="#76bbed"] ;
483 -> 485 ;
486 [label="X[13] <= 0.4\ngini = 0.2\nsamples = 10\nvalue = [1, 9]", fillcolor="#4fa8e8"] ;
485 -> 486 ;
487 [label="X[13] <= 0.3\ngini = 0.4\nsamples = 3\nvalue = [1, 2]", fillcolor="#9ccef2"] ;
486 -> 487 ;
488 [label="gini = 0.0\nsamples = 2\nvalue = [0, 2]", fillcolor="#399de5"] ;
487 -> 488 ;
489 [label="gini = 0.0\nsamples = 1\nvalue = [1, 0]", fillcolor="#e58139"] ;
487 -> 489 ;
490 [label="gini = 0.0\nsamples = 7\nvalue = [0, 7]", fillcolor="#399de5"] ;
486 -> 490 ;
491 [label="X[4] <= 0.5\ngini = 0.5\nsamples = 7\nvalue = [3, 4]", fillcolor="#cee6f8"] ;
485 -> 491 ;
492 [label="X[13] <= 0.3\ngini = 0.4\nsamples = 4\nvalue = [3, 1]", fillcolor="#eeab7b"] ;
491 -> 492 ;
493 [label="gini = 0.0\nsamples = 1\nvalue = [0, 1]", fillcolor="#399de5"] ;
492 -> 493 ;
494 [label="gini = 0.0\nsamples = 3\nvalue = [3, 0]", fillcolor="#e58139"] ;
492 -> 494 ;
495 [label="gini = 0.0\nsamples = 3\nvalue = [0, 3]", fillcolor="#399de5"] ;
491 -> 495 ;
496 [label="X[1] <= 0.5\ngini = 0.3\nsamples = 26\nvalue = [21, 5]", fillcolor="#eb9f68"] ;
470 -> 496 ;
497 [label="gini = 0.0\nsamples = 13\nvalue = [13, 0]", fillcolor="#e58139"] ;
496 -> 497 ;
498 [label="X[8] <= 0.3\ngini = 0.5\nsamples = 13\nvalue = [8, 5]", fillcolor="#f5d0b5"] ;
496 -> 498 ;
499 [label="gini = 0.0\nsamples = 2\nvalue = [0, 2]", fillcolor="#399de5"] ;
498 -> 499 ;
500 [label="X[13] <= 0.0\ngini = 0.4\nsamples = 11\nvalue = [8, 3]", fillcolor="#efb083"] ;
498 -> 500 ;
501 [label="gini = 0.0\nsamples = 1\nvalue = [0, 1]", fillcolor="#399de5"] ;
500 -> 501 ;
502 [label="X[14] <= 0.0\ngini = 0.3\nsamples = 10\nvalue = [8, 2]", fillcolor="#eca06a"] ;
500 -> 502 ;
503 [label="gini = 0.0\nsamples = 4\nvalue = [4, 0]", fillcolor="#e58139"] ;
502 -> 503 ;
504 [label="X[4] <= 0.5\ngini = 0.4\nsamples = 6\nvalue = [4, 2]", fillcolor="#f2c09c"] ;
502 -> 504 ;
505 [label="gini = 0.0\nsamples = 3\nvalue = [3, 0]", fillcolor="#e58139"] ;
504 -> 505 ;
506 [label="X[14] <= 0.0\ngini = 0.4\nsamples = 3\nvalue = [1, 2]", fillcolor="#9ccef2"] ;
504 -> 506 ;
507 [label="gini = 0.0\nsamples = 2\nvalue = [0, 2]", fillcolor="#399de5"] ;
506 -> 507 ;
508 [label="gini = 0.0\nsamples = 1\nvalue = [1, 0]", fillcolor="#e58139"] ;
506 -> 508 ;
509 [label="X[1] <= 0.5\ngini = 0.4\nsamples = 225\nvalue = [171, 54]", fillcolor="#eda978"] ;
469 -> 509 ;
510 [label="X[8] <= 0.4\ngini = 0.4\nsamples = 98\nvalue = [65, 33]", fillcolor="#f2c19e"] ;
509 -> 510 ;
511 [label="X[8] <= 0.3\ngini = 0.5\nsamples = 34\nvalue = [17, 17]", fillcolor="#ffffff"] ;
510 -> 511 ;
512 [label="X[2] <= 0.1\ngini = 0.5\nsamples = 28\nvalue = [17, 11]", fillcolor="#f6d3b9"] ;
511 -> 512 ;
513 [label="gini = 0.0\nsamples = 4\nvalue = [4, 0]", fillcolor="#e58139"] ;
512 -> 513 ;
514 [label="X[14] <= 0.0\ngini = 0.5\nsamples = 24\nvalue = [13, 11]", fillcolor="#fbece1"] ;
512 -> 514 ;
515 [label="X[4] <= 0.5\ngini = 0.5\nsamples = 20\nvalue = [9, 11]", fillcolor="#dbedfa"] ;
514 -> 515 ;
516 [label="X[12] <= 0.5\ngini = 0.5\nsamples = 13\nvalue = [8, 5]", fillcolor="#f5d0b5"] ;
515 -> 516 ;
517 [label="X[3] <= 0.8\ngini = 0.4\nsamples = 11\nvalue = [8, 3]", fillcolor="#efb083"] ;
516 -> 517 ;
518 [label="X[3] <= 0.1\ngini = 0.2\nsamples = 8\nvalue = [7, 1]", fillcolor="#e99355"] ;
517 -> 518 ;
519 [label="gini = 0.0\nsamples = 1\nvalue = [0, 1]", fillcolor="#399de5"] ;
518 -> 519 ;
520 [label="gini = 0.0\nsamples = 7\nvalue = [7, 0]", fillcolor="#e58139"] ;
518 -> 520 ;
521 [label="X[8] <= 0.1\ngini = 0.4\nsamples = 3\nvalue = [1, 2]", fillcolor="#9ccef2"] ;
517 -> 521 ;
522 [label="gini = 0.0\nsamples = 1\nvalue = [1, 0]", fillcolor="#e58139"] ;
521 -> 522 ;
523 [label="gini = 0.0\nsamples = 2\nvalue = [0, 2]", fillcolor="#399de5"] ;
521 -> 523 ;
524 [label="gini = 0.0\nsamples = 2\nvalue = [0, 2]", fillcolor="#399de5"] ;
516 -> 524 ;
525 [label="X[8] <= 0.3\ngini = 0.2\nsamples = 7\nvalue = [1, 6]", fillcolor="#5aade9"] ;
515 -> 525 ;
526 [label="gini = 0.0\nsamples = 6\nvalue = [0, 6]", fillcolor="#399de5"] ;
525 -> 526 ;
527 [label="gini = 0.0\nsamples = 1\nvalue = [1, 0]", fillcolor="#e58139"] ;
525 -> 527 ;
528 [label="gini = 0.0\nsamples = 4\nvalue = [4, 0]", fillcolor="#e58139"] ;
514 -> 528 ;
529 [label="gini = 0.0\nsamples = 6\nvalue = [0, 6]", fillcolor="#399de5"] ;
511 -> 529 ;
530 [label="X[4] <= 0.5\ngini = 0.4\nsamples = 64\nvalue = [48, 16]", fillcolor="#eeab7b"] ;
510 -> 530 ;
531 [label="X[13] <= 0.2\ngini = 0.5\nsamples = 14\nvalue = [7, 7]", fillcolor="#ffffff"] ;
530 -> 531 ;
532 [label="gini = 0.0\nsamples = 3\nvalue = [0, 3]", fillcolor="#399de5"] ;
531 -> 532 ;
533 [label="X[12] <= 0.6\ngini = 0.5\nsamples = 11\nvalue = [7, 4]", fillcolor="#f4c9aa"] ;
531 -> 533 ;
534 [label="X[0] <= 2.5\ngini = 0.3\nsamples = 9\nvalue = [7, 2]", fillcolor="#eca572"] ;
533 -> 534 ;
535 [label="gini = 0.0\nsamples = 5\nvalue = [5, 0]", fillcolor="#e58139"] ;
534 -> 535 ;
536 [label="X[4] <= 0.4\ngini = 0.5\nsamples = 4\nvalue = [2, 2]", fillcolor="#ffffff"] ;
534 -> 536 ;
537 [label="gini = 0.0\nsamples = 2\nvalue = [0, 2]", fillcolor="#399de5"] ;
536 -> 537 ;
538 [label="gini = 0.0\nsamples = 2\nvalue = [2, 0]", fillcolor="#e58139"] ;
536 -> 538 ;
539 [label="gini = 0.0\nsamples = 2\nvalue = [0, 2]", fillcolor="#399de5"] ;
533 -> 539 ;
540 [label="X[14] <= 0.0\ngini = 0.3\nsamples = 50\nvalue = [41, 9]", fillcolor="#eb9d64"] ;
530 -> 540 ;
541 [label="gini = 0.0\nsamples = 1\nvalue = [0, 1]", fillcolor="#399de5"] ;
540 -> 541 ;
542 [label="X[14] <= 0.0\ngini = 0.3\nsamples = 49\nvalue = [41, 8]", fillcolor="#ea9a60"] ;
540 -> 542 ;
543 [label="gini = 0.0\nsamples = 16\nvalue = [16, 0]", fillcolor="#e58139"] ;
542 -> 543 ;
544 [label="X[8] <= 0.7\ngini = 0.4\nsamples = 33\nvalue = [25, 8]", fillcolor="#eda978"] ;
542 -> 544 ;
545 [label="X[13] <= 0.1\ngini = 0.3\nsamples = 27\nvalue = [23, 4]", fillcolor="#ea975b"] ;
544 -> 545 ;
546 [label="X[8] <= 0.5\ngini = 0.4\nsamples = 3\nvalue = [1, 2]", fillcolor="#9ccef2"] ;
545 -> 546 ;
547 [label="gini = 0.0\nsamples = 1\nvalue = [1, 0]", fillcolor="#e58139"] ;
546 -> 547 ;
548 [label="gini = 0.0\nsamples = 2\nvalue = [0, 2]", fillcolor="#399de5"] ;
546 -> 548 ;
549 [label="X[12] <= 0.7\ngini = 0.2\nsamples = 24\nvalue = [22, 2]", fillcolor="#e78c4b"] ;
545 -> 549 ;
550 [label="X[2] <= 0.2\ngini = 0.1\nsamples = 22\nvalue = [21, 1]", fillcolor="#e68742"] ;
549 -> 550 ;
551 [label="gini = 0.0\nsamples = 19\nvalue = [19, 0]", fillcolor="#e58139"] ;
550 -> 551 ;
552 [label="X[13] <= 0.3\ngini = 0.4\nsamples = 3\nvalue = [2, 1]", fillcolor="#f2c09c"] ;
550 -> 552 ;
553 [label="gini = 0.0\nsamples = 2\nvalue = [2, 0]", fillcolor="#e58139"] ;
552 -> 553 ;
554 [label="gini = 0.0\nsamples = 1\nvalue = [0, 1]", fillcolor="#399de5"] ;
552 -> 554 ;
555 [label="X[14] <= 0.0\ngini = 0.5\nsamples = 2\nvalue = [1, 1]", fillcolor="#ffffff"] ;
549 -> 555 ;
556 [label="gini = 0.0\nsamples = 1\nvalue = [0, 1]", fillcolor="#399de5"] ;
555 -> 556 ;
557 [label="gini = 0.0\nsamples = 1\nvalue = [1, 0]", fillcolor="#e58139"] ;
555 -> 557 ;
558 [label="X[7] <= 0.0\ngini = 0.4\nsamples = 6\nvalue = [2, 4]", fillcolor="#9ccef2"] ;
544 -> 558 ;
559 [label="X[12] <= 0.4\ngini = 0.4\nsamples = 3\nvalue = [2, 1]", fillcolor="#f2c09c"] ;
558 -> 559 ;
560 [label="gini = 0.0\nsamples = 2\nvalue = [2, 0]", fillcolor="#e58139"] ;
559 -> 560 ;
561 [label="gini = 0.0\nsamples = 1\nvalue = [0, 1]", fillcolor="#399de5"] ;
559 -> 561 ;
562 [label="gini = 0.0\nsamples = 3\nvalue = [0, 3]", fillcolor="#399de5"] ;
558 -> 562 ;
563 [label="X[4] <= 0.4\ngini = 0.3\nsamples = 127\nvalue = [106, 21]", fillcolor="#ea9a60"] ;
509 -> 563 ;
564 [label="gini = 0.0\nsamples = 1\nvalue = [0, 1]", fillcolor="#399de5"] ;
563 -> 564 ;
565 [label="X[8] <= 1.0\ngini = 0.3\nsamples = 126\nvalue = [106, 20]", fillcolor="#ea995e"] ;
563 -> 565 ;
566 [label="X[7] <= 0.0\ngini = 0.3\nsamples = 125\nvalue = [106, 19]", fillcolor="#ea985c"] ;
565 -> 566 ;
567 [label="X[14] <= 0.0\ngini = 0.4\nsamples = 60\nvalue = [46, 14]", fillcolor="#eda775"] ;
566 -> 567 ;
568 [label="X[14] <= 0.0\ngini = 0.4\nsamples = 6\nvalue = [2, 4]", fillcolor="#9ccef2"] ;
567 -> 568 ;
569 [label="X[3] <= 0.6\ngini = 0.4\nsamples = 3\nvalue = [2, 1]", fillcolor="#f2c09c"] ;
568 -> 569 ;
570 [label="gini = 0.0\nsamples = 2\nvalue = [2, 0]", fillcolor="#e58139"] ;
569 -> 570 ;
571 [label="gini = 0.0\nsamples = 1\nvalue = [0, 1]", fillcolor="#399de5"] ;
569 -> 571 ;
572 [label="gini = 0.0\nsamples = 3\nvalue = [0, 3]", fillcolor="#399de5"] ;
568 -> 572 ;
573 [label="X[0] <= 1.5\ngini = 0.3\nsamples = 54\nvalue = [44, 10]", fillcolor="#eb9e66"] ;
567 -> 573 ;
574 [label="X[14] <= 0.0\ngini = 0.4\nsamples = 27\nvalue = [19, 8]", fillcolor="#f0b68c"] ;
573 -> 574 ;
575 [label="X[4] <= 0.5\ngini = 0.4\nsamples = 26\nvalue = [19, 7]", fillcolor="#efaf82"] ;
574 -> 575 ;
576 [label="X[4] <= 0.5\ngini = 0.5\nsamples = 11\nvalue = [6, 5]", fillcolor="#fbeade"] ;
575 -> 576 ;
577 [label="X[13] <= 0.4\ngini = 0.2\nsamples = 7\nvalue = [6, 1]", fillcolor="#e9965a"] ;
576 -> 577 ;
578 [label="gini = 0.0\nsamples = 5\nvalue = [5, 0]", fillcolor="#e58139"] ;
577 -> 578 ;
579 [label="X[14] <= 0.0\ngini = 0.5\nsamples = 2\nvalue = [1, 1]", fillcolor="#ffffff"] ;
577 -> 579 ;
580 [label="gini = 0.0\nsamples = 1\nvalue = [0, 1]", fillcolor="#399de5"] ;
579 -> 580 ;
581 [label="gini = 0.0\nsamples = 1\nvalue = [1, 0]", fillcolor="#e58139"] ;
579 -> 581 ;
582 [label="gini = 0.0\nsamples = 4\nvalue = [0, 4]", fillcolor="#399de5"] ;
576 -> 582 ;
583 [label="X[4] <= 0.6\ngini = 0.2\nsamples = 15\nvalue = [13, 2]", fillcolor="#e99457"] ;
575 -> 583 ;
584 [label="X[12] <= 0.3\ngini = 0.1\nsamples = 13\nvalue = [12, 1]", fillcolor="#e78c49"] ;
583 -> 584 ;
585 [label="X[6] <= 0.0\ngini = 0.5\nsamples = 2\nvalue = [1, 1]", fillcolor="#ffffff"] ;
584 -> 585 ;
586 [label="gini = 0.0\nsamples = 1\nvalue = [0, 1]", fillcolor="#399de5"] ;
585 -> 586 ;
587 [label="gini = 0.0\nsamples = 1\nvalue = [1, 0]", fillcolor="#e58139"] ;
585 -> 587 ;
588 [label="gini = 0.0\nsamples = 11\nvalue = [11, 0]", fillcolor="#e58139"] ;
584 -> 588 ;
589 [label="X[2] <= 0.2\ngini = 0.5\nsamples = 2\nvalue = [1, 1]", fillcolor="#ffffff"] ;
583 -> 589 ;
590 [label="gini = 0.0\nsamples = 1\nvalue = [0, 1]", fillcolor="#399de5"] ;
589 -> 590 ;
591 [label="gini = 0.0\nsamples = 1\nvalue = [1, 0]", fillcolor="#e58139"] ;
589 -> 591 ;
592 [label="gini = 0.0\nsamples = 1\nvalue = [0, 1]", fillcolor="#399de5"] ;
574 -> 592 ;
593 [label="X[4] <= 0.5\ngini = 0.1\nsamples = 27\nvalue = [25, 2]", fillcolor="#e78b49"] ;
573 -> 593 ;
594 [label="X[4] <= 0.5\ngini = 0.4\nsamples = 8\nvalue = [6, 2]", fillcolor="#eeab7b"] ;
593 -> 594 ;
595 [label="X[3] <= 0.4\ngini = 0.2\nsamples = 7\nvalue = [6, 1]", fillcolor="#e9965a"] ;
594 -> 595 ;
596 [label="X[12] <= 0.5\ngini = 0.5\nsamples = 2\nvalue = [1, 1]", fillcolor="#ffffff"] ;
595 -> 596 ;
597 [label="gini = 0.0\nsamples = 1\nvalue = [0, 1]", fillcolor="#399de5"] ;
596 -> 597 ;
598 [label="gini = 0.0\nsamples = 1\nvalue = [1, 0]", fillcolor="#e58139"] ;
596 -> 598 ;
599 [label="gini = 0.0\nsamples = 5\nvalue = [5, 0]", fillcolor="#e58139"] ;
595 -> 599 ;
600 [label="gini = 0.0\nsamples = 1\nvalue = [0, 1]", fillcolor="#399de5"] ;
594 -> 600 ;
601 [label="gini = 0.0\nsamples = 19\nvalue = [19, 0]", fillcolor="#e58139"] ;
593 -> 601 ;
602 [label="X[14] <= 0.0\ngini = 0.1\nsamples = 65\nvalue = [60, 5]", fillcolor="#e78c49"] ;
566 -> 602 ;
603 [label="X[2] <= 0.2\ngini = 0.1\nsamples = 63\nvalue = [59, 4]", fillcolor="#e78a46"] ;
602 -> 603 ;
604 [label="gini = 0.0\nsamples = 39\nvalue = [39, 0]", fillcolor="#e58139"] ;
603 -> 604 ;
605 [label="X[8] <= 0.9\ngini = 0.3\nsamples = 24\nvalue = [20, 4]", fillcolor="#ea9a61"] ;
603 -> 605 ;
606 [label="X[12] <= 0.4\ngini = 0.2\nsamples = 23\nvalue = [20, 3]", fillcolor="#e99457"] ;
605 -> 606 ;
607 [label="gini = 0.0\nsamples = 12\nvalue = [12, 0]", fillcolor="#e58139"] ;
606 -> 607 ;
608 [label="X[12] <= 0.4\ngini = 0.4\nsamples = 11\nvalue = [8, 3]", fillcolor="#efb083"] ;
606 -> 608 ;
609 [label="gini = 0.0\nsamples = 2\nvalue = [0, 2]", fillcolor="#399de5"] ;
608 -> 609 ;
610 [label="X[8] <= 0.9\ngini = 0.2\nsamples = 9\nvalue = [8, 1]", fillcolor="#e89152"] ;
608 -> 610 ;
611 [label="gini = 0.0\nsamples = 8\nvalue = [8, 0]", fillcolor="#e58139"] ;
610 -> 611 ;
612 [label="gini = 0.0\nsamples = 1\nvalue = [0, 1]", fillcolor="#399de5"] ;
610 -> 612 ;
613 [label="gini = 0.0\nsamples = 1\nvalue = [0, 1]", fillcolor="#399de5"] ;
605 -> 613 ;
614 [label="X[2] <= 0.1\ngini = 0.5\nsamples = 2\nvalue = [1, 1]", fillcolor="#ffffff"] ;
602 -> 614 ;
615 [label="gini = 0.0\nsamples = 1\nvalue = [1, 0]", fillcolor="#e58139"] ;
614 -> 615 ;
616 [label="gini = 0.0\nsamples = 1\nvalue = [0, 1]", fillcolor="#399de5"] ;
614 -> 616 ;
617 [label="gini = 0.0\nsamples = 1\nvalue = [0, 1]", fillcolor="#399de5"] ;
565 -> 617 ;
618 [label="X[12] <= 0.5\ngini = 0.2\nsamples = 93\nvalue = [85, 8]", fillcolor="#e78d4c"] ;
428 -> 618 ;
619 [label="X[14] <= 0.0\ngini = 0.0\nsamples = 70\nvalue = [69, 1]", fillcolor="#e5833c"] ;
618 -> 619 ;
620 [label="X[14] <= 0.0\ngini = 0.2\nsamples = 7\nvalue = [6, 1]", fillcolor="#e9965a"] ;
619 -> 620 ;
621 [label="gini = 0.0\nsamples = 6\nvalue = [6, 0]", fillcolor="#e58139"] ;
620 -> 621 ;
622 [label="gini = 0.0\nsamples = 1\nvalue = [0, 1]", fillcolor="#399de5"] ;
620 -> 622 ;
623 [label="gini = 0.0\nsamples = 63\nvalue = [63, 0]", fillcolor="#e58139"] ;
619 -> 623 ;
624 [label="X[12] <= 0.5\ngini = 0.4\nsamples = 23\nvalue = [16, 7]", fillcolor="#f0b890"] ;
618 -> 624 ;
625 [label="X[0] <= 2.5\ngini = 0.5\nsamples = 8\nvalue = [3, 5]", fillcolor="#b0d8f5"] ;
624 -> 625 ;
626 [label="X[3] <= 0.4\ngini = 0.4\nsamples = 4\nvalue = [3, 1]", fillcolor="#eeab7b"] ;
625 -> 626 ;
627 [label="gini = 0.0\nsamples = 2\nvalue = [2, 0]", fillcolor="#e58139"] ;
626 -> 627 ;
628 [label="X[4] <= 0.6\ngini = 0.5\nsamples = 2\nvalue = [1, 1]", fillcolor="#ffffff"] ;
626 -> 628 ;
629 [label="gini = 0.0\nsamples = 1\nvalue = [1, 0]", fillcolor="#e58139"] ;
628 -> 629 ;
630 [label="gini = 0.0\nsamples = 1\nvalue = [0, 1]", fillcolor="#399de5"] ;
628 -> 630 ;
631 [label="gini = 0.0\nsamples = 4\nvalue = [0, 4]", fillcolor="#399de5"] ;
625 -> 631 ;
632 [label="X[13] <= 0.4\ngini = 0.2\nsamples = 15\nvalue = [13, 2]", fillcolor="#e99457"] ;
624 -> 632 ;
633 [label="X[12] <= 0.6\ngini = 0.4\nsamples = 6\nvalue = [4, 2]", fillcolor="#f2c09c"] ;
632 -> 633 ;
634 [label="gini = 0.0\nsamples = 3\nvalue = [3, 0]", fillcolor="#e58139"] ;
633 -> 634 ;
635 [label="X[13] <= 0.2\ngini = 0.4\nsamples = 3\nvalue = [1, 2]", fillcolor="#9ccef2"] ;
633 -> 635 ;
636 [label="gini = 0.0\nsamples = 1\nvalue = [1, 0]", fillcolor="#e58139"] ;
635 -> 636 ;
637 [label="gini = 0.0\nsamples = 2\nvalue = [0, 2]", fillcolor="#399de5"] ;
635 -> 637 ;
638 [label="gini = 0.0\nsamples = 9\nvalue = [9, 0]", fillcolor="#e58139"] ;
632 -> 638 ;
639 [label="X[11] <= 0.0\ngini = 0.4\nsamples = 825\nvalue = [573, 252]", fillcolor="#f0b890"] ;
3 -> 639 ;
640 [label="X[7] <= 0.0\ngini = 0.4\nsamples = 606\nvalue = [456, 150]", fillcolor="#eeaa7a"] ;
639 -> 640 ;
641 [label="X[4] <= 0.7\ngini = 0.4\nsamples = 310\nvalue = [208, 102]", fillcolor="#f2bf9a"] ;
640 -> 641 ;
642 [label="X[4] <= 0.3\ngini = 0.4\nsamples = 293\nvalue = [204, 89]", fillcolor="#f0b88f"] ;
641 -> 642 ;
643 [label="X[8] <= 0.9\ngini = 0.5\nsamples = 104\nvalue = [61, 43]", fillcolor="#f7dac5"] ;
642 -> 643 ;
644 [label="X[13] <= 0.1\ngini = 0.5\nsamples = 97\nvalue = [60, 37]", fillcolor="#f5cfb3"] ;
643 -> 644 ;
645 [label="X[8] <= 0.2\ngini = 0.3\nsamples = 19\nvalue = [16, 3]", fillcolor="#ea995e"] ;
644 -> 645 ;
646 [label="X[13] <= 0.0\ngini = 0.5\nsamples = 6\nvalue = [3, 3]", fillcolor="#ffffff"] ;
645 -> 646 ;
647 [label="gini = 0.0\nsamples = 3\nvalue = [0, 3]", fillcolor="#399de5"] ;
646 -> 647 ;
648 [label="gini = 0.0\nsamples = 3\nvalue = [3, 0]", fillcolor="#e58139"] ;
646 -> 648 ;
649 [label="gini = 0.0\nsamples = 13\nvalue = [13, 0]", fillcolor="#e58139"] ;
645 -> 649 ;
650 [label="X[13] <= 0.4\ngini = 0.5\nsamples = 78\nvalue = [44, 34]", fillcolor="#f9e2d2"] ;
644 -> 650 ;
651 [label="X[8] <= 0.1\ngini = 0.5\nsamples = 72\nvalue = [38, 34]", fillcolor="#fcf2ea"] ;
650 -> 651 ;
652 [label="X[13] <= 0.3\ngini = 0.2\nsamples = 9\nvalue = [8, 1]", fillcolor="#e89152"] ;
651 -> 652 ;
653 [label="gini = 0.0\nsamples = 6\nvalue = [6, 0]", fillcolor="#e58139"] ;
652 -> 653 ;
654 [label="X[3] <= 0.8\ngini = 0.4\nsamples = 3\nvalue = [2, 1]", fillcolor="#f2c09c"] ;
652 -> 654 ;
655 [label="gini = 0.0\nsamples = 1\nvalue = [0, 1]", fillcolor="#399de5"] ;
654 -> 655 ;
656 [label="gini = 0.0\nsamples = 2\nvalue = [2, 0]", fillcolor="#e58139"] ;
654 -> 656 ;
657 [label="X[8] <= 0.3\ngini = 0.5\nsamples = 63\nvalue = [30, 33]", fillcolor="#edf6fd"] ;
651 -> 657 ;
658 [label="X[12] <= 0.3\ngini = 0.2\nsamples = 11\nvalue = [1, 10]", fillcolor="#4da7e8"] ;
657 -> 658 ;
659 [label="gini = 0.0\nsamples = 10\nvalue = [0, 10]", fillcolor="#399de5"] ;
658 -> 659 ;
660 [label="gini = 0.0\nsamples = 1\nvalue = [1, 0]", fillcolor="#e58139"] ;
658 -> 660 ;
661 [label="X[13] <= 0.2\ngini = 0.5\nsamples = 52\nvalue = [29, 23]", fillcolor="#fae5d6"] ;
657 -> 661 ;
662 [label="X[12] <= 0.2\ngini = 0.4\nsamples = 8\nvalue = [2, 6]", fillcolor="#7bbeee"] ;
661 -> 662 ;
663 [label="gini = 0.0\nsamples = 2\nvalue = [2, 0]", fillcolor="#e58139"] ;
662 -> 663 ;
664 [label="gini = 0.0\nsamples = 6\nvalue = [0, 6]", fillcolor="#399de5"] ;
662 -> 664 ;
665 [label="X[0] <= 0.5\ngini = 0.5\nsamples = 44\nvalue = [27, 17]", fillcolor="#f5d0b6"] ;
661 -> 665 ;
666 [label="X[13] <= 0.4\ngini = 0.5\nsamples = 15\nvalue = [6, 9]", fillcolor="#bddef6"] ;
665 -> 666 ;
667 [label="X[8] <= 0.4\ngini = 0.4\nsamples = 12\nvalue = [3, 9]", fillcolor="#7bbeee"] ;
666 -> 667 ;
668 [label="gini = 0.0\nsamples = 2\nvalue = [2, 0]", fillcolor="#e58139"] ;
667 -> 668 ;
669 [label="X[3] <= 0.8\ngini = 0.2\nsamples = 10\nvalue = [1, 9]", fillcolor="#4fa8e8"] ;
667 -> 669 ;
670 [label="gini = 0.0\nsamples = 8\nvalue = [0, 8]", fillcolor="#399de5"] ;
669 -> 670 ;
671 [label="X[10] <= 0.0\ngini = 0.5\nsamples = 2\nvalue = [1, 1]", fillcolor="#ffffff"] ;
669 -> 671 ;
672 [label="gini = 0.0\nsamples = 1\nvalue = [1, 0]", fillcolor="#e58139"] ;
671 -> 672 ;
673 [label="gini = 0.0\nsamples = 1\nvalue = [0, 1]", fillcolor="#399de5"] ;
671 -> 673 ;
674 [label="gini = 0.0\nsamples = 3\nvalue = [3, 0]", fillcolor="#e58139"] ;
666 -> 674 ;
675 [label="X[3] <= 0.8\ngini = 0.4\nsamples = 29\nvalue = [21, 8]", fillcolor="#efb184"] ;
665 -> 675 ;
676 [label="X[0] <= 3.5\ngini = 0.3\nsamples = 27\nvalue = [21, 6]", fillcolor="#eca572"] ;
675 -> 676 ;
677 [label="X[8] <= 0.8\ngini = 0.3\nsamples = 24\nvalue = [20, 4]", fillcolor="#ea9a61"] ;
676 -> 677 ;
678 [label="X[8] <= 0.4\ngini = 0.2\nsamples = 20\nvalue = [18, 2]", fillcolor="#e88f4f"] ;
677 -> 678 ;
679 [label="X[3] <= 0.7\ngini = 0.4\nsamples = 3\nvalue = [2, 1]", fillcolor="#f2c09c"] ;
678 -> 679 ;
680 [label="gini = 0.0\nsamples = 2\nvalue = [2, 0]", fillcolor="#e58139"] ;
679 -> 680 ;
681 [label="gini = 0.0\nsamples = 1\nvalue = [0, 1]", fillcolor="#399de5"] ;
679 -> 681 ;
682 [label="X[4] <= 0.1\ngini = 0.1\nsamples = 17\nvalue = [16, 1]", fillcolor="#e78945"] ;
678 -> 682 ;
683 [label="gini = 0.0\nsamples = 13\nvalue = [13, 0]", fillcolor="#e58139"] ;
682 -> 683 ;
684 [label="X[9] <= 0.0\ngini = 0.4\nsamples = 4\nvalue = [3, 1]", fillcolor="#eeab7b"] ;
682 -> 684 ;
685 [label="gini = 0.0\nsamples = 1\nvalue = [0, 1]", fillcolor="#399de5"] ;
684 -> 685 ;
686 [label="gini = 0.0\nsamples = 3\nvalue = [3, 0]", fillcolor="#e58139"] ;
684 -> 686 ;
687 [label="X[8] <= 0.8\ngini = 0.5\nsamples = 4\nvalue = [2, 2]", fillcolor="#ffffff"] ;
677 -> 687 ;
688 [label="gini = 0.0\nsamples = 2\nvalue = [0, 2]", fillcolor="#399de5"] ;
687 -> 688 ;
689 [label="gini = 0.0\nsamples = 2\nvalue = [2, 0]", fillcolor="#e58139"] ;
687 -> 689 ;
690 [label="X[2] <= 0.3\ngini = 0.4\nsamples = 3\nvalue = [1, 2]", fillcolor="#9ccef2"] ;
676 -> 690 ;
691 [label="gini = 0.0\nsamples = 1\nvalue = [1, 0]", fillcolor="#e58139"] ;
690 -> 691 ;
692 [label="gini = 0.0\nsamples = 2\nvalue = [0, 2]", fillcolor="#399de5"] ;
690 -> 692 ;
693 [label="gini = 0.0\nsamples = 2\nvalue = [0, 2]", fillcolor="#399de5"] ;
675 -> 693 ;
694 [label="gini = 0.0\nsamples = 6\nvalue = [6, 0]", fillcolor="#e58139"] ;
650 -> 694 ;
695 [label="X[0] <= 0.5\ngini = 0.2\nsamples = 7\nvalue = [1, 6]", fillcolor="#5aade9"] ;
643 -> 695 ;
696 [label="gini = 0.0\nsamples = 1\nvalue = [1, 0]", fillcolor="#e58139"] ;
695 -> 696 ;
697 [label="gini = 0.0\nsamples = 6\nvalue = [0, 6]", fillcolor="#399de5"] ;
695 -> 697 ;
698 [label="X[12] <= 0.2\ngini = 0.4\nsamples = 189\nvalue = [143, 46]", fillcolor="#edaa79"] ;
642 -> 698 ;
699 [label="X[2] <= 0.3\ngini = 0.5\nsamples = 49\nvalue = [29, 20]", fillcolor="#f7d8c2"] ;
698 -> 699 ;
700 [label="X[8] <= 0.6\ngini = 0.2\nsamples = 22\nvalue = [19, 3]", fillcolor="#e99558"] ;
699 -> 700 ;
701 [label="gini = 0.0\nsamples = 11\nvalue = [11, 0]", fillcolor="#e58139"] ;
700 -> 701 ;
702 [label="X[8] <= 0.7\ngini = 0.4\nsamples = 11\nvalue = [8, 3]", fillcolor="#efb083"] ;
700 -> 702 ;
703 [label="X[3] <= 0.7\ngini = 0.4\nsamples = 3\nvalue = [1, 2]", fillcolor="#9ccef2"] ;
702 -> 703 ;
704 [label="gini = 0.0\nsamples = 2\nvalue = [0, 2]", fillcolor="#399de5"] ;
703 -> 704 ;
705 [label="gini = 0.0\nsamples = 1\nvalue = [1, 0]", fillcolor="#e58139"] ;
703 -> 705 ;
706 [label="X[14] <= 0.0\ngini = 0.2\nsamples = 8\nvalue = [7, 1]", fillcolor="#e99355"] ;
702 -> 706 ;
707 [label="gini = 0.0\nsamples = 7\nvalue = [7, 0]", fillcolor="#e58139"] ;
706 -> 707 ;
708 [label="gini = 0.0\nsamples = 1\nvalue = [0, 1]", fillcolor="#399de5"] ;
706 -> 708 ;
709 [label="X[14] <= 0.0\ngini = 0.5\nsamples = 27\nvalue = [10, 17]", fillcolor="#add7f4"] ;
699 -> 709 ;
710 [label="X[14] <= 0.0\ngini = 0.5\nsamples = 14\nvalue = [8, 6]", fillcolor="#f8e0ce"] ;
709 -> 710 ;
711 [label="gini = 0.0\nsamples = 3\nvalue = [0, 3]", fillcolor="#399de5"] ;
710 -> 711 ;
712 [label="X[2] <= 0.3\ngini = 0.4\nsamples = 11\nvalue = [8, 3]", fillcolor="#efb083"] ;
710 -> 712 ;
713 [label="X[12] <= 0.2\ngini = 0.3\nsamples = 10\nvalue = [8, 2]", fillcolor="#eca06a"] ;
712 -> 713 ;
714 [label="gini = 0.0\nsamples = 6\nvalue = [6, 0]", fillcolor="#e58139"] ;
713 -> 714 ;
715 [label="X[12] <= 0.2\ngini = 0.5\nsamples = 4\nvalue = [2, 2]", fillcolor="#ffffff"] ;
713 -> 715 ;
716 [label="gini = 0.0\nsamples = 2\nvalue = [0, 2]", fillcolor="#399de5"] ;
715 -> 716 ;
717 [label="gini = 0.0\nsamples = 2\nvalue = [2, 0]", fillcolor="#e58139"] ;
715 -> 717 ;
718 [label="gini = 0.0\nsamples = 1\nvalue = [0, 1]", fillcolor="#399de5"] ;
712 -> 718 ;
719 [label="X[14] <= 0.0\ngini = 0.3\nsamples = 13\nvalue = [2, 11]", fillcolor="#5dafea"] ;
709 -> 719 ;
720 [label="X[14] <= 0.0\ngini = 0.2\nsamples = 12\nvalue = [1, 11]", fillcolor="#4ba6e7"] ;
719 -> 720 ;
721 [label="X[3] <= 0.6\ngini = 0.4\nsamples = 3\nvalue = [1, 2]", fillcolor="#9ccef2"] ;
720 -> 721 ;
722 [label="gini = 0.0\nsamples = 1\nvalue = [1, 0]", fillcolor="#e58139"] ;
721 -> 722 ;
723 [label="gini = 0.0\nsamples = 2\nvalue = [0, 2]", fillcolor="#399de5"] ;
721 -> 723 ;
724 [label="gini = 0.0\nsamples = 9\nvalue = [0, 9]", fillcolor="#399de5"] ;
720 -> 724 ;
725 [label="gini = 0.0\nsamples = 1\nvalue = [1, 0]", fillcolor="#e58139"] ;
719 -> 725 ;
726 [label="X[12] <= 0.4\ngini = 0.3\nsamples = 140\nvalue = [114, 26]", fillcolor="#eb9e66"] ;
698 -> 726 ;
727 [label="X[0] <= 3.5\ngini = 0.3\nsamples = 129\nvalue = [109, 20]", fillcolor="#ea985d"] ;
726 -> 727 ;
728 [label="X[13] <= 0.5\ngini = 0.3\nsamples = 128\nvalue = [109, 19]", fillcolor="#ea975c"] ;
727 -> 728 ;
729 [label="X[4] <= 0.6\ngini = 0.2\nsamples = 127\nvalue = [109, 18]", fillcolor="#e9965a"] ;
728 -> 729 ;
730 [label="X[4] <= 0.5\ngini = 0.3\nsamples = 108\nvalue = [90, 18]", fillcolor="#ea9a61"] ;
729 -> 730 ;
731 [label="X[4] <= 0.4\ngini = 0.2\nsamples = 79\nvalue = [70, 9]", fillcolor="#e89152"] ;
730 -> 731 ;
732 [label="X[2] <= 0.3\ngini = 0.3\nsamples = 43\nvalue = [35, 8]", fillcolor="#eb9e66"] ;
731 -> 732 ;
733 [label="X[8] <= 1.0\ngini = 0.2\nsamples = 37\nvalue = [32, 5]", fillcolor="#e99558"] ;
732 -> 733 ;
734 [label="X[4] <= 0.4\ngini = 0.2\nsamples = 36\nvalue = [32, 4]", fillcolor="#e89152"] ;
733 -> 734 ;
735 [label="X[9] <= 0.0\ngini = 0.1\nsamples = 26\nvalue = [25, 1]", fillcolor="#e68641"] ;
734 -> 735 ;
736 [label="X[1] <= 0.5\ngini = 0.2\nsamples = 8\nvalue = [7, 1]", fillcolor="#e99355"] ;
735 -> 736 ;
737 [label="X[13] <= 0.2\ngini = 0.5\nsamples = 2\nvalue = [1, 1]", fillcolor="#ffffff"] ;
736 -> 737 ;
738 [label="gini = 0.0\nsamples = 1\nvalue = [1, 0]", fillcolor="#e58139"] ;
737 -> 738 ;
739 [label="gini = 0.0\nsamples = 1\nvalue = [0, 1]", fillcolor="#399de5"] ;
737 -> 739 ;
740 [label="gini = 0.0\nsamples = 6\nvalue = [6, 0]", fillcolor="#e58139"] ;
736 -> 740 ;
741 [label="gini = 0.0\nsamples = 18\nvalue = [18, 0]", fillcolor="#e58139"] ;
735 -> 741 ;
742 [label="X[4] <= 0.4\ngini = 0.4\nsamples = 10\nvalue = [7, 3]", fillcolor="#f0b78e"] ;
734 -> 742 ;
743 [label="X[12] <= 0.3\ngini = 0.4\nsamples = 4\nvalue = [1, 3]", fillcolor="#7bbeee"] ;
742 -> 743 ;
744 [label="gini = 0.0\nsamples = 3\nvalue = [0, 3]", fillcolor="#399de5"] ;
743 -> 744 ;
745 [label="gini = 0.0\nsamples = 1\nvalue = [1, 0]", fillcolor="#e58139"] ;
743 -> 745 ;
746 [label="gini = 0.0\nsamples = 6\nvalue = [6, 0]", fillcolor="#e58139"] ;
742 -> 746 ;
747 [label="gini = 0.0\nsamples = 1\nvalue = [0, 1]", fillcolor="#399de5"] ;
733 -> 747 ;
748 [label="X[14] <= 0.0\ngini = 0.5\nsamples = 6\nvalue = [3, 3]", fillcolor="#ffffff"] ;
732 -> 748 ;
749 [label="X[3] <= 0.5\ngini = 0.4\nsamples = 4\nvalue = [3, 1]", fillcolor="#eeab7b"] ;
748 -> 749 ;
750 [label="X[12] <= 0.2\ngini = 0.5\nsamples = 2\nvalue = [1, 1]", fillcolor="#ffffff"] ;
749 -> 750 ;
751 [label="gini = 0.0\nsamples = 1\nvalue = [1, 0]", fillcolor="#e58139"] ;
750 -> 751 ;
752 [label="gini = 0.0\nsamples = 1\nvalue = [0, 1]", fillcolor="#399de5"] ;
750 -> 752 ;
753 [label="gini = 0.0\nsamples = 2\nvalue = [2, 0]", fillcolor="#e58139"] ;
749 -> 753 ;
754 [label="gini = 0.0\nsamples = 2\nvalue = [0, 2]", fillcolor="#399de5"] ;
748 -> 754 ;
755 [label="X[4] <= 0.5\ngini = 0.1\nsamples = 36\nvalue = [35, 1]", fillcolor="#e6853f"] ;
731 -> 755 ;
756 [label="gini = 0.0\nsamples = 31\nvalue = [31, 0]", fillcolor="#e58139"] ;
755 -> 756 ;
757 [label="X[14] <= 0.0\ngini = 0.3\nsamples = 5\nvalue = [4, 1]", fillcolor="#eca06a"] ;
755 -> 757 ;
758 [label="gini = 0.0\nsamples = 4\nvalue = [4, 0]", fillcolor="#e58139"] ;
757 -> 758 ;
759 [label="gini = 0.0\nsamples = 1\nvalue = [0, 1]", fillcolor="#399de5"] ;
757 -> 759 ;
760 [label="X[14] <= 0.0\ngini = 0.4\nsamples = 29\nvalue = [20, 9]", fillcolor="#f1ba92"] ;
730 -> 760 ;
761 [label="X[12] <= 0.3\ngini = 0.5\nsamples = 20\nvalue = [11, 9]", fillcolor="#fae8db"] ;
760 -> 761 ;
762 [label="X[8] <= 0.4\ngini = 0.3\nsamples = 9\nvalue = [7, 2]", fillcolor="#eca572"] ;
761 -> 762 ;
763 [label="gini = 0.0\nsamples = 2\nvalue = [0, 2]", fillcolor="#399de5"] ;
762 -> 763 ;
764 [label="gini = 0.0\nsamples = 7\nvalue = [7, 0]", fillcolor="#e58139"] ;
762 -> 764 ;
765 [label="X[8] <= 0.5\ngini = 0.5\nsamples = 11\nvalue = [4, 7]", fillcolor="#aad5f4"] ;
761 -> 765 ;
766 [label="gini = 0.0\nsamples = 2\nvalue = [2, 0]", fillcolor="#e58139"] ;
765 -> 766 ;
767 [label="X[2] <= 0.3\ngini = 0.3\nsamples = 9\nvalue = [2, 7]", fillcolor="#72b9ec"] ;
765 -> 767 ;
768 [label="gini = 0.0\nsamples = 6\nvalue = [0, 6]", fillcolor="#399de5"] ;
767 -> 768 ;
769 [label="X[13] <= 0.0\ngini = 0.4\nsamples = 3\nvalue = [2, 1]", fillcolor="#f2c09c"] ;
767 -> 769 ;
770 [label="gini = 0.0\nsamples = 1\nvalue = [0, 1]", fillcolor="#399de5"] ;
769 -> 770 ;
771 [label="gini = 0.0\nsamples = 2\nvalue = [2, 0]", fillcolor="#e58139"] ;
769 -> 771 ;
772 [label="gini = 0.0\nsamples = 9\nvalue = [9, 0]", fillcolor="#e58139"] ;
760 -> 772 ;
773 [label="gini = 0.0\nsamples = 19\nvalue = [19, 0]", fillcolor="#e58139"] ;
729 -> 773 ;
774 [label="gini = 0.0\nsamples = 1\nvalue = [0, 1]", fillcolor="#399de5"] ;
728 -> 774 ;
775 [label="gini = 0.0\nsamples = 1\nvalue = [0, 1]", fillcolor="#399de5"] ;
727 -> 775 ;
776 [label="X[6] <= 0.0\ngini = 0.5\nsamples = 11\nvalue = [5, 6]", fillcolor="#deeffb"] ;
726 -> 776 ;
777 [label="gini = 0.0\nsamples = 2\nvalue = [2, 0]", fillcolor="#e58139"] ;
776 -> 777 ;
778 [label="X[12] <= 0.4\ngini = 0.4\nsamples = 9\nvalue = [3, 6]", fillcolor="#9ccef2"] ;
776 -> 778 ;
779 [label="X[8] <= 0.1\ngini = 0.2\nsamples = 7\nvalue = [1, 6]", fillcolor="#5aade9"] ;
778 -> 779 ;
780 [label="gini = 0.0\nsamples = 1\nvalue = [1, 0]", fillcolor="#e58139"] ;
779 -> 780 ;
781 [label="gini = 0.0\nsamples = 6\nvalue = [0, 6]", fillcolor="#399de5"] ;
779 -> 781 ;
782 [label="gini = 0.0\nsamples = 2\nvalue = [2, 0]", fillcolor="#e58139"] ;
778 -> 782 ;
783 [label="X[12] <= 0.2\ngini = 0.4\nsamples = 17\nvalue = [4, 13]", fillcolor="#76bbed"] ;
641 -> 783 ;
784 [label="gini = 0.0\nsamples = 2\nvalue = [2, 0]", fillcolor="#e58139"] ;
783 -> 784 ;
785 [label="X[2] <= 0.3\ngini = 0.2\nsamples = 15\nvalue = [2, 13]", fillcolor="#57ace9"] ;
783 -> 785 ;
786 [label="gini = 0.0\nsamples = 9\nvalue = [0, 9]", fillcolor="#399de5"] ;
785 -> 786 ;
787 [label="X[3] <= 0.8\ngini = 0.4\nsamples = 6\nvalue = [2, 4]", fillcolor="#9ccef2"] ;
785 -> 787 ;
788 [label="X[3] <= 0.2\ngini = 0.4\nsamples = 3\nvalue = [2, 1]", fillcolor="#f2c09c"] ;
787 -> 788 ;
789 [label="gini = 0.0\nsamples = 1\nvalue = [0, 1]", fillcolor="#399de5"] ;
788 -> 789 ;
790 [label="gini = 0.0\nsamples = 2\nvalue = [2, 0]", fillcolor="#e58139"] ;
788 -> 790 ;
791 [label="gini = 0.0\nsamples = 3\nvalue = [0, 3]", fillcolor="#399de5"] ;
787 -> 791 ;
792 [label="X[14] <= 0.0\ngini = 0.3\nsamples = 296\nvalue = [248, 48]", fillcolor="#ea995f"] ;
640 -> 792 ;
793 [label="X[13] <= 0.4\ngini = 0.4\nsamples = 100\nvalue = [75, 25]", fillcolor="#eeab7b"] ;
792 -> 793 ;
794 [label="X[14] <= 0.0\ngini = 0.4\nsamples = 97\nvalue = [75, 22]", fillcolor="#eda673"] ;
793 -> 794 ;
795 [label="X[8] <= 0.9\ngini = 0.3\nsamples = 81\nvalue = [67, 14]", fillcolor="#ea9b62"] ;
794 -> 795 ;
796 [label="X[8] <= 0.8\ngini = 0.3\nsamples = 68\nvalue = [54, 14]", fillcolor="#eca26c"] ;
795 -> 796 ;
797 [label="X[4] <= 0.2\ngini = 0.3\nsamples = 66\nvalue = [54, 12]", fillcolor="#eb9d65"] ;
796 -> 797 ;
798 [label="X[12] <= 0.3\ngini = 0.3\nsamples = 62\nvalue = [52, 10]", fillcolor="#ea995f"] ;
797 -> 798 ;
799 [label="X[12] <= 0.3\ngini = 0.3\nsamples = 53\nvalue = [43, 10]", fillcolor="#eb9e67"] ;
798 -> 799 ;
800 [label="X[8] <= 0.7\ngini = 0.3\nsamples = 52\nvalue = [43, 9]", fillcolor="#ea9b62"] ;
799 -> 800 ;
801 [label="X[13] <= 0.0\ngini = 0.3\nsamples = 41\nvalue = [32, 9]", fillcolor="#eca471"] ;
800 -> 801 ;
802 [label="X[12] <= 0.2\ngini = 0.4\nsamples = 3\nvalue = [1, 2]", fillcolor="#9ccef2"] ;
801 -> 802 ;
803 [label="gini = 0.0\nsamples = 1\nvalue = [1, 0]", fillcolor="#e58139"] ;
802 -> 803 ;
804 [label="gini = 0.0\nsamples = 2\nvalue = [0, 2]", fillcolor="#399de5"] ;
802 -> 804 ;
805 [label="X[8] <= 0.7\ngini = 0.3\nsamples = 38\nvalue = [31, 7]", fillcolor="#eb9d66"] ;
801 -> 805 ;
806 [label="X[2] <= 0.3\ngini = 0.3\nsamples = 37\nvalue = [31, 6]", fillcolor="#ea995f"] ;
805 -> 806 ;
807 [label="X[8] <= 0.4\ngini = 0.5\nsamples = 5\nvalue = [3, 2]", fillcolor="#f6d5bd"] ;
806 -> 807 ;
808 [label="gini = 0.0\nsamples = 2\nvalue = [0, 2]", fillcolor="#399de5"] ;
807 -> 808 ;
809 [label="gini = 0.0\nsamples = 3\nvalue = [3, 0]", fillcolor="#e58139"] ;
807 -> 809 ;
810 [label="X[12] <= 0.2\ngini = 0.2\nsamples = 32\nvalue = [28, 4]", fillcolor="#e99355"] ;
806 -> 810 ;
811 [label="gini = 0.0\nsamples = 14\nvalue = [14, 0]", fillcolor="#e58139"] ;
810 -> 811 ;
812 [label="X[12] <= 0.3\ngini = 0.3\nsamples = 18\nvalue = [14, 4]", fillcolor="#eca572"] ;
810 -> 812 ;
813 [label="gini = 0.0\nsamples = 1\nvalue = [0, 1]", fillcolor="#399de5"] ;
812 -> 813 ;
814 [label="X[13] <= 0.3\ngini = 0.3\nsamples = 17\nvalue = [14, 3]", fillcolor="#eb9c63"] ;
812 -> 814 ;
815 [label="X[13] <= 0.1\ngini = 0.2\nsamples = 11\nvalue = [10, 1]", fillcolor="#e88e4d"] ;
814 -> 815 ;
816 [label="X[13] <= 0.1\ngini = 0.4\nsamples = 3\nvalue = [2, 1]", fillcolor="#f2c09c"] ;
815 -> 816 ;
817 [label="gini = 0.0\nsamples = 2\nvalue = [2, 0]", fillcolor="#e58139"] ;
816 -> 817 ;
818 [label="gini = 0.0\nsamples = 1\nvalue = [0, 1]", fillcolor="#399de5"] ;
816 -> 818 ;
819 [label="gini = 0.0\nsamples = 8\nvalue = [8, 0]", fillcolor="#e58139"] ;
815 -> 819 ;
820 [label="X[2] <= 0.3\ngini = 0.4\nsamples = 6\nvalue = [4, 2]", fillcolor="#f2c09c"] ;
814 -> 820 ;
821 [label="gini = 0.0\nsamples = 3\nvalue = [3, 0]", fillcolor="#e58139"] ;
820 -> 821 ;
822 [label="X[1] <= 0.5\ngini = 0.4\nsamples = 3\nvalue = [1, 2]", fillcolor="#9ccef2"] ;
820 -> 822 ;
823 [label="gini = 0.0\nsamples = 1\nvalue = [1, 0]", fillcolor="#e58139"] ;
822 -> 823 ;
824 [label="gini = 0.0\nsamples = 2\nvalue = [0, 2]", fillcolor="#399de5"] ;
822 -> 824 ;
825 [label="gini = 0.0\nsamples = 1\nvalue = [0, 1]", fillcolor="#399de5"] ;
805 -> 825 ;
826 [label="gini = 0.0\nsamples = 11\nvalue = [11, 0]", fillcolor="#e58139"] ;
800 -> 826 ;
827 [label="gini = 0.0\nsamples = 1\nvalue = [0, 1]", fillcolor="#399de5"] ;
799 -> 827 ;
828 [label="gini = 0.0\nsamples = 9\nvalue = [9, 0]", fillcolor="#e58139"] ;
798 -> 828 ;
829 [label="X[4] <= 0.2\ngini = 0.5\nsamples = 4\nvalue = [2, 2]", fillcolor="#ffffff"] ;
797 -> 829 ;
830 [label="gini = 0.0\nsamples = 2\nvalue = [0, 2]", fillcolor="#399de5"] ;
829 -> 830 ;
831 [label="gini = 0.0\nsamples = 2\nvalue = [2, 0]", fillcolor="#e58139"] ;
829 -> 831 ;
832 [label="gini = 0.0\nsamples = 2\nvalue = [0, 2]", fillcolor="#399de5"] ;
796 -> 832 ;
833 [label="gini = 0.0\nsamples = 13\nvalue = [13, 0]", fillcolor="#e58139"] ;
795 -> 833 ;
834 [label="X[12] <= 0.3\ngini = 0.5\nsamples = 16\nvalue = [8, 8]", fillcolor="#ffffff"] ;
794 -> 834 ;
835 [label="X[4] <= 0.3\ngini = 0.4\nsamples = 10\nvalue = [3, 7]", fillcolor="#8ec7f0"] ;
834 -> 835 ;
836 [label="gini = 0.0\nsamples = 2\nvalue = [2, 0]", fillcolor="#e58139"] ;
835 -> 836 ;
837 [label="X[8] <= 0.9\ngini = 0.2\nsamples = 8\nvalue = [1, 7]", fillcolor="#55abe9"] ;
835 -> 837 ;
838 [label="gini = 0.0\nsamples = 6\nvalue = [0, 6]", fillcolor="#399de5"] ;
837 -> 838 ;
839 [label="X[0] <= 1.5\ngini = 0.5\nsamples = 2\nvalue = [1, 1]", fillcolor="#ffffff"] ;
837 -> 839 ;
840 [label="gini = 0.0\nsamples = 1\nvalue = [0, 1]", fillcolor="#399de5"] ;
839 -> 840 ;
841 [label="gini = 0.0\nsamples = 1\nvalue = [1, 0]", fillcolor="#e58139"] ;
839 -> 841 ;
842 [label="X[12] <= 0.4\ngini = 0.3\nsamples = 6\nvalue = [5, 1]", fillcolor="#ea9a61"] ;
834 -> 842 ;
843 [label="gini = 0.0\nsamples = 5\nvalue = [5, 0]", fillcolor="#e58139"] ;
842 -> 843 ;
844 [label="gini = 0.0\nsamples = 1\nvalue = [0, 1]", fillcolor="#399de5"] ;
842 -> 844 ;
845 [label="gini = 0.0\nsamples = 3\nvalue = [0, 3]", fillcolor="#399de5"] ;
793 -> 845 ;
846 [label="X[4] <= 0.5\ngini = 0.2\nsamples = 196\nvalue = [173, 23]", fillcolor="#e89253"] ;
792 -> 846 ;
847 [label="X[4] <= 0.3\ngini = 0.1\nsamples = 108\nvalue = [101, 7]", fillcolor="#e78a47"] ;
846 -> 847 ;
848 [label="X[10] <= 0.0\ngini = 0.5\nsamples = 8\nvalue = [5, 3]", fillcolor="#f5cdb0"] ;
847 -> 848 ;
849 [label="X[13] <= 0.3\ngini = 0.4\nsamples = 4\nvalue = [1, 3]", fillcolor="#7bbeee"] ;
848 -> 849 ;
850 [label="gini = 0.0\nsamples = 3\nvalue = [0, 3]", fillcolor="#399de5"] ;
849 -> 850 ;
851 [label="gini = 0.0\nsamples = 1\nvalue = [1, 0]", fillcolor="#e58139"] ;
849 -> 851 ;
852 [label="gini = 0.0\nsamples = 4\nvalue = [4, 0]", fillcolor="#e58139"] ;
848 -> 852 ;
853 [label="X[3] <= 0.1\ngini = 0.1\nsamples = 100\nvalue = [96, 4]", fillcolor="#e68641"] ;
847 -> 853 ;
854 [label="X[4] <= 0.5\ngini = 0.5\nsamples = 5\nvalue = [3, 2]", fillcolor="#f6d5bd"] ;
853 -> 854 ;
855 [label="gini = 0.0\nsamples = 3\nvalue = [3, 0]", fillcolor="#e58139"] ;
854 -> 855 ;
856 [label="gini = 0.0\nsamples = 2\nvalue = [0, 2]", fillcolor="#399de5"] ;
854 -> 856 ;
857 [label="X[4] <= 0.4\ngini = 0.0\nsamples = 95\nvalue = [93, 2]", fillcolor="#e6843d"] ;
853 -> 857 ;
858 [label="X[4] <= 0.4\ngini = 0.1\nsamples = 26\nvalue = [24, 2]", fillcolor="#e78c49"] ;
857 -> 858 ;
859 [label="X[8] <= 0.6\ngini = 0.1\nsamples = 25\nvalue = [24, 1]", fillcolor="#e68641"] ;
858 -> 859 ;
860 [label="gini = 0.0\nsamples = 20\nvalue = [20, 0]", fillcolor="#e58139"] ;
859 -> 860 ;
861 [label="X[12] <= 0.3\ngini = 0.3\nsamples = 5\nvalue = [4, 1]", fillcolor="#eca06a"] ;
859 -> 861 ;
862 [label="gini = 0.0\nsamples = 4\nvalue = [4, 0]", fillcolor="#e58139"] ;
861 -> 862 ;
863 [label="gini = 0.0\nsamples = 1\nvalue = [0, 1]", fillcolor="#399de5"] ;
861 -> 863 ;
864 [label="gini = 0.0\nsamples = 1\nvalue = [0, 1]", fillcolor="#399de5"] ;
858 -> 864 ;
865 [label="gini = 0.0\nsamples = 69\nvalue = [69, 0]", fillcolor="#e58139"] ;
857 -> 865 ;
866 [label="X[12] <= 0.2\ngini = 0.3\nsamples = 88\nvalue = [72, 16]", fillcolor="#eb9d65"] ;
846 -> 866 ;
867 [label="gini = 0.0\nsamples = 2\nvalue = [0, 2]", fillcolor="#399de5"] ;
866 -> 867 ;
868 [label="X[4] <= 0.5\ngini = 0.3\nsamples = 86\nvalue = [72, 14]", fillcolor="#ea9a5f"] ;
866 -> 868 ;
869 [label="gini = 0.0\nsamples = 1\nvalue = [0, 1]", fillcolor="#399de5"] ;
868 -> 869 ;
870 [label="X[12] <= 0.3\ngini = 0.3\nsamples = 85\nvalue = [72, 13]", fillcolor="#ea985d"] ;
868 -> 870 ;
871 [label="X[2] <= 0.3\ngini = 0.4\nsamples = 40\nvalue = [30, 10]", fillcolor="#eeab7b"] ;
870 -> 871 ;
872 [label="X[12] <= 0.3\ngini = 0.2\nsamples = 22\nvalue = [19, 3]", fillcolor="#e99558"] ;
871 -> 872 ;
873 [label="gini = 0.0\nsamples = 14\nvalue = [14, 0]", fillcolor="#e58139"] ;
872 -> 873 ;
874 [label="X[8] <= 0.7\ngini = 0.5\nsamples = 8\nvalue = [5, 3]", fillcolor="#f5cdb0"] ;
872 -> 874 ;
875 [label="X[13] <= 0.1\ngini = 0.4\nsamples = 4\nvalue = [1, 3]", fillcolor="#7bbeee"] ;
874 -> 875 ;
876 [label="gini = 0.0\nsamples = 1\nvalue = [1, 0]", fillcolor="#e58139"] ;
875 -> 876 ;
877 [label="gini = 0.0\nsamples = 3\nvalue = [0, 3]", fillcolor="#399de5"] ;
875 -> 877 ;
878 [label="gini = 0.0\nsamples = 4\nvalue = [4, 0]", fillcolor="#e58139"] ;
874 -> 878 ;
879 [label="X[8] <= 0.7\ngini = 0.5\nsamples = 18\nvalue = [11, 7]", fillcolor="#f6d1b7"] ;
871 -> 879 ;
880 [label="X[10] <= 0.0\ngini = 0.4\nsamples = 15\nvalue = [11, 4]", fillcolor="#eeaf81"] ;
879 -> 880 ;
881 [label="X[8] <= 0.1\ngini = 0.5\nsamples = 9\nvalue = [5, 4]", fillcolor="#fae6d7"] ;
880 -> 881 ;
882 [label="gini = 0.0\nsamples = 3\nvalue = [3, 0]", fillcolor="#e58139"] ;
881 -> 882 ;
883 [label="X[13] <= 0.1\ngini = 0.4\nsamples = 6\nvalue = [2, 4]", fillcolor="#9ccef2"] ;
881 -> 883 ;
884 [label="gini = 0.0\nsamples = 2\nvalue = [2, 0]", fillcolor="#e58139"] ;
883 -> 884 ;
885 [label="gini = 0.0\nsamples = 4\nvalue = [0, 4]", fillcolor="#399de5"] ;
883 -> 885 ;
886 [label="gini = 0.0\nsamples = 6\nvalue = [6, 0]", fillcolor="#e58139"] ;
880 -> 886 ;
887 [label="gini = 0.0\nsamples = 3\nvalue = [0, 3]", fillcolor="#399de5"] ;
879 -> 887 ;
888 [label="X[4] <= 0.7\ngini = 0.1\nsamples = 45\nvalue = [42, 3]", fillcolor="#e78a47"] ;
870 -> 888 ;
889 [label="X[4] <= 0.5\ngini = 0.1\nsamples = 38\nvalue = [37, 1]", fillcolor="#e6843e"] ;
888 -> 889 ;
890 [label="X[2] <= 0.3\ngini = 0.4\nsamples = 3\nvalue = [2, 1]", fillcolor="#f2c09c"] ;
889 -> 890 ;
891 [label="gini = 0.0\nsamples = 1\nvalue = [0, 1]", fillcolor="#399de5"] ;
890 -> 891 ;
892 [label="gini = 0.0\nsamples = 2\nvalue = [2, 0]", fillcolor="#e58139"] ;
890 -> 892 ;
893 [label="gini = 0.0\nsamples = 35\nvalue = [35, 0]", fillcolor="#e58139"] ;
889 -> 893 ;
894 [label="X[14] <= 0.0\ngini = 0.4\nsamples = 7\nvalue = [5, 2]", fillcolor="#efb388"] ;
888 -> 894 ;
895 [label="gini = 0.0\nsamples = 2\nvalue = [0, 2]", fillcolor="#399de5"] ;
894 -> 895 ;
896 [label="gini = 0.0\nsamples = 5\nvalue = [5, 0]", fillcolor="#e58139"] ;
894 -> 896 ;
897 [label="X[4] <= 0.4\ngini = 0.5\nsamples = 219\nvalue = [117, 102]", fillcolor="#fcefe6"] ;
639 -> 897 ;
898 [label="X[8] <= 1.0\ngini = 0.1\nsamples = 26\nvalue = [24, 2]", fillcolor="#e78c49"] ;
897 -> 898 ;
899 [label="X[8] <= 1.0\ngini = 0.1\nsamples = 25\nvalue = [24, 1]", fillcolor="#e68641"] ;
898 -> 899 ;
900 [label="gini = 0.0\nsamples = 21\nvalue = [21, 0]", fillcolor="#e58139"] ;
899 -> 900 ;
901 [label="X[4] <= 0.4\ngini = 0.4\nsamples = 4\nvalue = [3, 1]", fillcolor="#eeab7b"] ;
899 -> 901 ;
902 [label="gini = 0.0\nsamples = 3\nvalue = [3, 0]", fillcolor="#e58139"] ;
901 -> 902 ;
903 [label="gini = 0.0\nsamples = 1\nvalue = [0, 1]", fillcolor="#399de5"] ;
901 -> 903 ;
904 [label="gini = 0.0\nsamples = 1\nvalue = [0, 1]", fillcolor="#399de5"] ;
898 -> 904 ;
905 [label="X[4] <= 0.6\ngini = 0.5\nsamples = 193\nvalue = [93, 100]", fillcolor="#f1f8fd"] ;
897 -> 905 ;
906 [label="X[12] <= 0.3\ngini = 0.5\nsamples = 173\nvalue = [75, 98]", fillcolor="#d1e8f9"] ;
905 -> 906 ;
907 [label="X[14] <= 0.0\ngini = 0.5\nsamples = 154\nvalue = [60, 94]", fillcolor="#b7dcf6"] ;
906 -> 907 ;
908 [label="X[4] <= 0.5\ngini = 0.5\nsamples = 97\nvalue = [46, 51]", fillcolor="#ecf5fc"] ;
907 -> 908 ;
909 [label="X[14] <= 0.0\ngini = 0.5\nsamples = 64\nvalue = [25, 39]", fillcolor="#b8dcf6"] ;
908 -> 909 ;
910 [label="X[3] <= 0.8\ngini = 0.5\nsamples = 60\nvalue = [21, 39]", fillcolor="#a4d2f3"] ;
909 -> 910 ;
911 [label="X[4] <= 0.5\ngini = 0.5\nsamples = 45\nvalue = [20, 25]", fillcolor="#d7ebfa"] ;
910 -> 911 ;
912 [label="X[7] <= 0.0\ngini = 0.5\nsamples = 30\nvalue = [17, 13]", fillcolor="#f9e1d0"] ;
911 -> 912 ;
913 [label="X[4] <= 0.4\ngini = 0.4\nsamples = 17\nvalue = [13, 4]", fillcolor="#eda876"] ;
912 -> 913 ;
914 [label="X[8] <= 0.5\ngini = 0.5\nsamples = 8\nvalue = [4, 4]", fillcolor="#ffffff"] ;
913 -> 914 ;
915 [label="gini = 0.0\nsamples = 2\nvalue = [2, 0]", fillcolor="#e58139"] ;
914 -> 915 ;
916 [label="X[4] <= 0.4\ngini = 0.4\nsamples = 6\nvalue = [2, 4]", fillcolor="#9ccef2"] ;
914 -> 916 ;
917 [label="X[8] <= 0.7\ngini = 0.4\nsamples = 3\nvalue = [2, 1]", fillcolor="#f2c09c"] ;
916 -> 917 ;
918 [label="gini = 0.0\nsamples = 1\nvalue = [0, 1]", fillcolor="#399de5"] ;
917 -> 918 ;
919 [label="gini = 0.0\nsamples = 2\nvalue = [2, 0]", fillcolor="#e58139"] ;
917 -> 919 ;
920 [label="gini = 0.0\nsamples = 3\nvalue = [0, 3]", fillcolor="#399de5"] ;
916 -> 920 ;
921 [label="gini = 0.0\nsamples = 9\nvalue = [9, 0]", fillcolor="#e58139"] ;
913 -> 921 ;
922 [label="X[14] <= 0.0\ngini = 0.4\nsamples = 13\nvalue = [4, 9]", fillcolor="#91c9f1"] ;
912 -> 922 ;
923 [label="X[13] <= 0.2\ngini = 0.5\nsamples = 8\nvalue = [4, 4]", fillcolor="#ffffff"] ;
922 -> 923 ;
924 [label="X[14] <= 0.0\ngini = 0.4\nsamples = 6\nvalue = [4, 2]", fillcolor="#f2c09c"] ;
923 -> 924 ;
925 [label="gini = 0.0\nsamples = 2\nvalue = [0, 2]", fillcolor="#399de5"] ;
924 -> 925 ;
926 [label="gini = 0.0\nsamples = 4\nvalue = [4, 0]", fillcolor="#e58139"] ;
924 -> 926 ;
927 [label="gini = 0.0\nsamples = 2\nvalue = [0, 2]", fillcolor="#399de5"] ;
923 -> 927 ;
928 [label="gini = 0.0\nsamples = 5\nvalue = [0, 5]", fillcolor="#399de5"] ;
922 -> 928 ;
929 [label="X[13] <= 0.1\ngini = 0.3\nsamples = 15\nvalue = [3, 12]", fillcolor="#6ab6ec"] ;
911 -> 929 ;
930 [label="gini = 0.0\nsamples = 10\nvalue = [0, 10]", fillcolor="#399de5"] ;
929 -> 930 ;
931 [label="X[0] <= 0.5\ngini = 0.5\nsamples = 5\nvalue = [3, 2]", fillcolor="#f6d5bd"] ;
929 -> 931 ;
932 [label="gini = 0.0\nsamples = 3\nvalue = [3, 0]", fillcolor="#e58139"] ;
931 -> 932 ;
933 [label="gini = 0.0\nsamples = 2\nvalue = [0, 2]", fillcolor="#399de5"] ;
931 -> 933 ;
934 [label="X[12] <= 0.3\ngini = 0.1\nsamples = 15\nvalue = [1, 14]", fillcolor="#47a4e7"] ;
910 -> 934 ;
935 [label="gini = 0.0\nsamples = 13\nvalue = [0, 13]", fillcolor="#399de5"] ;
934 -> 935 ;
936 [label="X[12] <= 0.3\ngini = 0.5\nsamples = 2\nvalue = [1, 1]", fillcolor="#ffffff"] ;
934 -> 936 ;
937 [label="gini = 0.0\nsamples = 1\nvalue = [1, 0]", fillcolor="#e58139"] ;
936 -> 937 ;
938 [label="gini = 0.0\nsamples = 1\nvalue = [0, 1]", fillcolor="#399de5"] ;
936 -> 938 ;
939 [label="gini = 0.0\nsamples = 4\nvalue = [4, 0]", fillcolor="#e58139"] ;
909 -> 939 ;
940 [label="X[4] <= 0.6\ngini = 0.5\nsamples = 33\nvalue = [21, 12]", fillcolor="#f4c9aa"] ;
908 -> 940 ;
941 [label="X[8] <= 0.8\ngini = 0.2\nsamples = 15\nvalue = [13, 2]", fillcolor="#e99457"] ;
940 -> 941 ;
942 [label="gini = 0.0\nsamples = 10\nvalue = [10, 0]", fillcolor="#e58139"] ;
941 -> 942 ;
943 [label="X[14] <= 0.0\ngini = 0.5\nsamples = 5\nvalue = [3, 2]", fillcolor="#f6d5bd"] ;
941 -> 943 ;
944 [label="gini = 0.0\nsamples = 3\nvalue = [3, 0]", fillcolor="#e58139"] ;
943 -> 944 ;
945 [label="gini = 0.0\nsamples = 2\nvalue = [0, 2]", fillcolor="#399de5"] ;
943 -> 945 ;
946 [label="X[7] <= 0.0\ngini = 0.5\nsamples = 18\nvalue = [8, 10]", fillcolor="#d7ebfa"] ;
940 -> 946 ;
947 [label="X[4] <= 0.6\ngini = 0.4\nsamples = 12\nvalue = [3, 9]", fillcolor="#7bbeee"] ;
946 -> 947 ;
948 [label="gini = 0.0\nsamples = 8\nvalue = [0, 8]", fillcolor="#399de5"] ;
947 -> 948 ;
949 [label="X[14] <= 0.0\ngini = 0.4\nsamples = 4\nvalue = [3, 1]", fillcolor="#eeab7b"] ;
947 -> 949 ;
950 [label="gini = 0.0\nsamples = 1\nvalue = [0, 1]", fillcolor="#399de5"] ;
949 -> 950 ;
951 [label="gini = 0.0\nsamples = 3\nvalue = [3, 0]", fillcolor="#e58139"] ;
949 -> 951 ;
952 [label="X[2] <= 0.3\ngini = 0.3\nsamples = 6\nvalue = [5, 1]", fillcolor="#ea9a61"] ;
946 -> 952 ;
953 [label="gini = 0.0\nsamples = 1\nvalue = [0, 1]", fillcolor="#399de5"] ;
952 -> 953 ;
954 [label="gini = 0.0\nsamples = 5\nvalue = [5, 0]", fillcolor="#e58139"] ;
952 -> 954 ;
955 [label="X[8] <= 0.1\ngini = 0.4\nsamples = 57\nvalue = [14, 43]", fillcolor="#79bded"] ;
907 -> 955 ;
956 [label="X[6] <= 0.0\ngini = 0.5\nsamples = 25\nvalue = [11, 14]", fillcolor="#d5eaf9"] ;
955 -> 956 ;
957 [label="X[4] <= 0.4\ngini = 0.4\nsamples = 10\nvalue = [7, 3]", fillcolor="#f0b78e"] ;
956 -> 957 ;
958 [label="X[4] <= 0.4\ngini = 0.4\nsamples = 3\nvalue = [1, 2]", fillcolor="#9ccef2"] ;
957 -> 958 ;
959 [label="gini = 0.0\nsamples = 1\nvalue = [1, 0]", fillcolor="#e58139"] ;
958 -> 959 ;
960 [label="gini = 0.0\nsamples = 2\nvalue = [0, 2]", fillcolor="#399de5"] ;
958 -> 960 ;
961 [label="X[3] <= 0.9\ngini = 0.2\nsamples = 7\nvalue = [6, 1]", fillcolor="#e9965a"] ;
957 -> 961 ;
962 [label="gini = 0.0\nsamples = 6\nvalue = [6, 0]", fillcolor="#e58139"] ;
961 -> 962 ;
963 [label="gini = 0.0\nsamples = 1\nvalue = [0, 1]", fillcolor="#399de5"] ;
961 -> 963 ;
964 [label="X[2] <= 0.3\ngini = 0.4\nsamples = 15\nvalue = [4, 11]", fillcolor="#81c1ee"] ;
956 -> 964 ;
965 [label="X[14] <= 0.0\ngini = 0.4\nsamples = 3\nvalue = [2, 1]", fillcolor="#f2c09c"] ;
964 -> 965 ;
966 [label="gini = 0.0\nsamples = 2\nvalue = [2, 0]", fillcolor="#e58139"] ;
965 -> 966 ;
967 [label="gini = 0.0\nsamples = 1\nvalue = [0, 1]", fillcolor="#399de5"] ;
965 -> 967 ;
968 [label="X[1] <= 0.5\ngini = 0.3\nsamples = 12\nvalue = [2, 10]", fillcolor="#61b1ea"] ;
964 -> 968 ;
969 [label="X[3] <= 0.3\ngini = 0.5\nsamples = 5\nvalue = [2, 3]", fillcolor="#bddef6"] ;
968 -> 969 ;
970 [label="gini = 0.0\nsamples = 2\nvalue = [0, 2]", fillcolor="#399de5"] ;
969 -> 970 ;
971 [label="X[7] <= 0.0\ngini = 0.4\nsamples = 3\nvalue = [2, 1]", fillcolor="#f2c09c"] ;
969 -> 971 ;
972 [label="gini = 0.0\nsamples = 2\nvalue = [2, 0]", fillcolor="#e58139"] ;
971 -> 972 ;
973 [label="gini = 0.0\nsamples = 1\nvalue = [0, 1]", fillcolor="#399de5"] ;
971 -> 973 ;
974 [label="gini = 0.0\nsamples = 7\nvalue = [0, 7]", fillcolor="#399de5"] ;
968 -> 974 ;
975 [label="X[14] <= 0.0\ngini = 0.2\nsamples = 32\nvalue = [3, 29]", fillcolor="#4da7e8"] ;
955 -> 975 ;
976 [label="gini = 0.0\nsamples = 16\nvalue = [0, 16]", fillcolor="#399de5"] ;
975 -> 976 ;
977 [label="X[14] <= 0.0\ngini = 0.3\nsamples = 16\nvalue = [3, 13]", fillcolor="#67b4eb"] ;
975 -> 977 ;
978 [label="X[12] <= 0.3\ngini = 0.4\nsamples = 3\nvalue = [2, 1]", fillcolor="#f2c09c"] ;
977 -> 978 ;
979 [label="gini = 0.0\nsamples = 2\nvalue = [2, 0]", fillcolor="#e58139"] ;
978 -> 979 ;
980 [label="gini = 0.0\nsamples = 1\nvalue = [0, 1]", fillcolor="#399de5"] ;
978 -> 980 ;
981 [label="X[8] <= 0.1\ngini = 0.1\nsamples = 13\nvalue = [1, 12]", fillcolor="#49a5e7"] ;
977 -> 981 ;
982 [label="X[8] <= 0.1\ngini = 0.3\nsamples = 5\nvalue = [1, 4]", fillcolor="#6ab6ec"] ;
981 -> 982 ;
983 [label="gini = 0.0\nsamples = 4\nvalue = [0, 4]", fillcolor="#399de5"] ;
982 -> 983 ;
984 [label="gini = 0.0\nsamples = 1\nvalue = [1, 0]", fillcolor="#e58139"] ;
982 -> 984 ;
985 [label="gini = 0.0\nsamples = 8\nvalue = [0, 8]", fillcolor="#399de5"] ;
981 -> 985 ;
986 [label="X[13] <= 0.4\ngini = 0.3\nsamples = 19\nvalue = [15, 4]", fillcolor="#eca36e"] ;
906 -> 986 ;
987 [label="X[1] <= 0.5\ngini = 0.2\nsamples = 17\nvalue = [15, 2]", fillcolor="#e89253"] ;
986 -> 987 ;
988 [label="gini = 0.0\nsamples = 10\nvalue = [10, 0]", fillcolor="#e58139"] ;
987 -> 988 ;
989 [label="X[0] <= 2.5\ngini = 0.4\nsamples = 7\nvalue = [5, 2]", fillcolor="#efb388"] ;
987 -> 989 ;
990 [label="gini = 0.0\nsamples = 1\nvalue = [0, 1]", fillcolor="#399de5"] ;
989 -> 990 ;
991 [label="X[13] <= 0.3\ngini = 0.3\nsamples = 6\nvalue = [5, 1]", fillcolor="#ea9a61"] ;
989 -> 991 ;
992 [label="gini = 0.0\nsamples = 5\nvalue = [5, 0]", fillcolor="#e58139"] ;
991 -> 992 ;
993 [label="gini = 0.0\nsamples = 1\nvalue = [0, 1]", fillcolor="#399de5"] ;
991 -> 993 ;
994 [label="gini = 0.0\nsamples = 2\nvalue = [0, 2]", fillcolor="#399de5"] ;
986 -> 994 ;
995 [label="X[13] <= 0.4\ngini = 0.2\nsamples = 20\nvalue = [18, 2]", fillcolor="#e88f4f"] ;
905 -> 995 ;
996 [label="gini = 0.0\nsamples = 17\nvalue = [17, 0]", fillcolor="#e58139"] ;
995 -> 996 ;
997 [label="X[2] <= 0.3\ngini = 0.4\nsamples = 3\nvalue = [1, 2]", fillcolor="#9ccef2"] ;
995 -> 997 ;
998 [label="gini = 0.0\nsamples = 2\nvalue = [0, 2]", fillcolor="#399de5"] ;
997 -> 998 ;
999 [label="gini = 0.0\nsamples = 1\nvalue = [1, 0]", fillcolor="#e58139"] ;
997 -> 999 ;
1000 [label="X[14] <= 0.0\ngini = 0.1\nsamples = 3035\nvalue = [2886, 149]", fillcolor="#e68843"] ;
2 -> 1000 ;
1001 [label="X[2] <= 0.3\ngini = 0.0\nsamples = 1746\nvalue = [1706, 40]", fillcolor="#e6843e"] ;
1000 -> 1001 ;
1002 [label="X[1] <= 0.5\ngini = 0.0\nsamples = 1643\nvalue = [1611, 32]", fillcolor="#e6843d"] ;
1001 -> 1002 ;
1003 [label="X[2] <= 0.2\ngini = 0.1\nsamples = 727\nvalue = [704, 23]", fillcolor="#e6853f"] ;
1002 -> 1003 ;
1004 [label="X[13] <= 0.0\ngini = 0.0\nsamples = 449\nvalue = [441, 8]", fillcolor="#e5833d"] ;
1003 -> 1004 ;
1005 [label="X[8] <= 0.2\ngini = 0.2\nsamples = 16\nvalue = [14, 2]", fillcolor="#e99355"] ;
1004 -> 1005 ;
1006 [label="gini = 0.0\nsamples = 1\nvalue = [0, 1]", fillcolor="#399de5"] ;
1005 -> 1006 ;
1007 [label="X[12] <= 0.6\ngini = 0.1\nsamples = 15\nvalue = [14, 1]", fillcolor="#e78a47"] ;
1005 -> 1007 ;
1008 [label="gini = 0.0\nsamples = 13\nvalue = [13, 0]", fillcolor="#e58139"] ;
1007 -> 1008 ;
1009 [label="X[0] <= 2.5\ngini = 0.5\nsamples = 2\nvalue = [1, 1]", fillcolor="#ffffff"] ;
1007 -> 1009 ;
1010 [label="gini = 0.0\nsamples = 1\nvalue = [0, 1]", fillcolor="#399de5"] ;
1009 -> 1010 ;
1011 [label="gini = 0.0\nsamples = 1\nvalue = [1, 0]", fillcolor="#e58139"] ;
1009 -> 1011 ;
1012 [label="X[8] <= 0.0\ngini = 0.0\nsamples = 433\nvalue = [427, 6]", fillcolor="#e5833c"] ;
1004 -> 1012 ;
1013 [label="X[13] <= 0.3\ngini = 0.3\nsamples = 5\nvalue = [4, 1]", fillcolor="#eca06a"] ;
1012 -> 1013 ;
1014 [label="gini = 0.0\nsamples = 4\nvalue = [4, 0]", fillcolor="#e58139"] ;
1013 -> 1014 ;
1015 [label="gini = 0.0\nsamples = 1\nvalue = [0, 1]", fillcolor="#399de5"] ;
1013 -> 1015 ;
1016 [label="X[8] <= 0.1\ngini = 0.0\nsamples = 428\nvalue = [423, 5]", fillcolor="#e5823b"] ;
1012 -> 1016 ;
1017 [label="X[8] <= 0.1\ngini = 0.1\nsamples = 37\nvalue = [35, 2]", fillcolor="#e68844"] ;
1016 -> 1017 ;
1018 [label="X[9] <= 0.0\ngini = 0.1\nsamples = 36\nvalue = [35, 1]", fillcolor="#e6853f"] ;
1017 -> 1018 ;
1019 [label="X[2] <= 0.1\ngini = 0.2\nsamples = 12\nvalue = [11, 1]", fillcolor="#e78c4b"] ;
1018 -> 1019 ;
1020 [label="X[2] <= 0.1\ngini = 0.4\nsamples = 3\nvalue = [2, 1]", fillcolor="#f2c09c"] ;
1019 -> 1020 ;
1021 [label="gini = 0.0\nsamples = 2\nvalue = [2, 0]", fillcolor="#e58139"] ;
1020 -> 1021 ;
1022 [label="gini = 0.0\nsamples = 1\nvalue = [0, 1]", fillcolor="#399de5"] ;
1020 -> 1022 ;
